tree
version=v4
num_class=1
num_tree_per_iteration=1
label_index=0
max_feature_idx=5
objective=binary sigmoid:1
feature_names=Column_0 Column_1 Column_2 Column_3 Column_4 Column_5
feature_infos=[-7:8] [-0.75:1] [-0.69999998807907104:0.69999998807907104] [-4.5:4.5999999046325684] [-4.9000000953674316:4.9000000953674316] [-7.3000001907348633:7.3000001907348633]
tree_sizes=3316 3408 3406 3403 3399 3418 3201 3422 3411 3406 3401 3422 3306 3425 3424 3397 3426 3410 3404 3401 3417 3408 3429 3410 3412 2246 3418 2451 2352 3424 3410 3323 3425 2559 2342 3193 3437 3428 3413 3416 2983 3011 2793 2994 2694 1931 1828 1304 2263 1302 3114 3420 3407 3416 3418 2053 2376 2280 2682 1953 2043 2666 3424 2366 3423 1932 3086 2042 1509 1510 1838 1842 1413 3333 2271 2358 1840 1516 1423 1102 2783 2170 1410 3089 1404 2676 1415 1922 1726 1505 3423 2475 3411 3314 3317 3102 1733 2688 1622 2047 2467 1940 2356 2790 2461 2170 2365 2269 2159 2163 1747 3443 3416 1633 3430 1730 3413 2143 2144 3420 3225 2060 2594 3410 1946 3111 2152 1720 2893 3430 1957 1851 1960 1961 1857 3420 2897 2046 2043 3436 3418 3332 3223 3423 3446 1409 1835 1098 1848 1832 3322 3416 3416 3295 3129 2150 2051 1416 2479 1944 2372 2910 3413 2580 2374 2345 2350 2052 2464 2580 1511 1726 2144 2577 2364 2037 2798 2273 1311 1415 3202 2693 2578 2059 1956 1734 1832 1516 1319 1837 2573 2680 2675 2480 2257 2550 2451 2552 2578 3101

Tree=0
num_leaves=31
num_cat=0
split_feature=5 2 5 3 4 4 3 2 5 5 5 5 0 3 5 2 4 4 5 3 4 4 3 4 3 4 0 4 3 2
split_gain=23.342 6.88107 4.93319 4.28508 4.17106 5.1893 4.90968 3.93869 3.41701 3.29959 3.28075 4.76651 5.82364 3.27857 3.08378 3.06703 3.01743 4.10478 2.88393 2.77282 2.76224 3.05233 2.40802 2.24195 2.13127 2.57602 1.84451 2.36345 5.15446 1.833
threshold=-1.6833333373069761 0.17261905223131183 -2.7958333492279048 -2.2749999761581416 -2.1714285612106319 1.0285714268684389 0.72499999403953563 -0.097619049251079545 1.9499999880790713 -4.7499999999999991 1.0249999761581423 -0.65000000596046437 -2.4999999999999996 1.4333333373069765 -1.8499999642372129 -0.35277777910232538 0.24444445222616198 -1.638888895511627 2.7500000000000004 1.1214286088943484 -1.4777777791023252 1.8499999642372134 0.82857143878936779 -1.9624999761581419 0.94999998807907116 -0.87857142090797413 -2.4999999999999996 1.4499999880790713 -2.3666666746139522 0.30714286863803869
decision_type=2 2 2 2 2 2 2 2 2 2 2 2 2 2 2 2 2 2 2 2 2 2 2 2 2 2 2 2 2 2
left_child=2 3 9 -2 6 16 18 10 20 -1 11 12 -5 -8 15 -4 17 29 -3 -19 23 -22 -13 -9 -10 -26 -11 28 -28 -6
right_child=1 4 14 7 5 -7 13 8 24 26 -12 22 -14 -15 -16 -17 -18 19 -20 -21 21 -23 -24 -25 25 -27 27 -29 -30 -31
leaf_value=0.041037181076968049 0.12814889695284173 0.080237453221111199 0.077375211128046781 0.12148741279762786 0.14587162535517467 0.0563854357789077 0.13488025681597743 0.076230314290821014 0.077375211128046781 0.1044184640073451 0.058770637523128048 0.10129407498855965 0.076088049003355085 0.080237453221111199 0.07665965060478068 0.044979107884758979 0.12786328476964215 0.087029214119908133 0.034701783558722693 0.1081066525483174 0.080237453221111199 0.040166063918209316 0.13417970805194068 0.035329861760962526 0.13032668984973855 0.087393058453772252 0.062965302659515568 0.066259061603819849 0.12317108461707751 0.10755885501854431
leaf_weight=5.7397562414407721 5.7397562414407721 9.4830755293369311 8.7344116717576963 8.4848570525646192 7.2370839565992338 5.2406470030546179 5.4902016222476941 6.2388654798269272 8.7344116717576998 7.2370839565992346 6.9875293374061576 39.180075213313103 42.174730643630028 5.4902016222476959 13.975058674812315 44.670276835560799 15.222831770777701 29.447445064783096 5.490201622247695 33.190764352679253 99.322738438844681 4.9910923838615409 6.4884200990200034 7.2370839565992338 6.9875293374061584 6.9875293374061567 7.2370839565992355 21.46169725060463 6.9875293374061567 5.4902016222476959
leaf_count=23 23 38 35 34 29 21 22 25 35 29 28 157 169 22 56 179 61 118 22 133 398 20 26 29 28 28 29 86 28 22
internal_value=0.0840846 0.0902014 0.0645105 0.0854467 0.0999447 0.10476 0.082164 0.0844415 0.0789919 0.0766413 0.0918523 0.0942521 0.0836919 0.107559 0.0557494 0.0502775 0.107559 0.103458 0.063541 0.0981977 0.0755681 0.0783202 0.105966 0.0542653 0.0967504 0.10886 0.0814023 0.0767347 0.0925401 0.129345
internal_weight=487.38 371.337 116.043 249.555 121.783 95.829 25.9537 243.815 140.499 48.6632 103.316 96.3281 50.6596 10.9804 67.3797 53.4047 90.5883 75.3655 14.9733 62.6382 117.79 104.314 45.6685 13.4759 22.7095 13.9751 42.9234 35.6863 14.2246 12.7273
internal_count=1953 1488 465 1000 488 384 104 977 563 195 414 386 203 44 270 214 363 302 60 251 472 418 183 54 91 56 172 143 57 51
is_linear=0
shrinkage=1


Tree=1
num_leaves=31
num_cat=0
split_feature=5 2 5 3 3 3 3 2 5 3 5 5 0 5 3 3 2 5 5 5 0 5 3 5 5 4 2 2 3 5
split_gain=21.0573 6.21829 4.44318 4.12291 6.77132 4.64814 3.87682 3.55542 3.15348 3.42854 3.80173 3.09549 3.06406 3.12371 3.63475 3.95296 3.36537 2.97257 2.9602 4.30824 5.26387 2.69673 2.40002 5.28168 3.00752 2.27826 2.21722 3.62586 2.18444 1.74206
threshold=-1.6833333373069761 0.17261905223131183 -2.7958333492279048 2.7500000000000004 1.1214286088943484 3.1055555343627934 -2.2749999761581416 -0.097619049251079545 1.5500000119209292 1.0388888716697695 2.4083334207534794 -0.18333333730697629 -2.4999999999999996 -1.8499999642372129 -0.55000001192092884 -0.17500000447034833 -0.21111111342906949 -4.7499999999999991 1.0249999761581423 -0.65000000596046437 -2.4999999999999996 -1.3857142925262449 0.61428573727607738 2.7500000000000004 2.5499999523162846 1.5249999761581423 -0.11805555596947669 -0.35277777910232538 0.82857143878936779 1.1125000119209292
decision_type=2 2 2 2 2 2 2 2 2 2 2 2 2 2 2 2 2 2 2 2 2 2 2 2 2 2 2 2 2 2
left_child=2 6 17 4 11 -5 -2 18 21 -10 -11 -3 -4 14 26 -16 -17 -1 19 20 -8 -9 23 -13 -24 -23 27 -14 -21 -6
right_child=1 3 12 5 29 -7 7 8 9 10 -12 22 13 -15 15 16 -18 -19 -20 28 -22 25 24 -25 -26 -27 -28 -29 -30 -31
leaf_value=-0.041199344129885608 0.041597710827517564 0.044989767135154693 -0.052808901202303221 -0.047903886005183041 0.0047489410477337202 0.010794974890680674 0.03523926741294784 0.026426736307283996 -0.0065910730686196397 0.05267463636656862 0.0031746453855839257 0.0037718745523873005 -0.012218433068909247 0.00051747634531383189 0.027685878738258552 0.0019755608524446517 -0.054657163197152442 -0.0029096879754035823 -0.024387304497384375 0.015999704542862977 -0.0079560867547108748 -0.0089823974637585242 0.0039638823854208621 -0.051750489471663941 0.044054817228839679 -0.036409814809695344 -0.013366445488490719 -0.057207077508521623 0.047359746619011739 0.036057617427625824
leaf_weight=5.7475800067186347 5.7264577597379676 4.9859043955802909 9.9917961806058866 5.2364872992038718 4.9848319590091696 9.4748020470142347 8.4687134921550733 4.993165671825408 18.470244616270065 6.9847145825624457 8.7234232276678068 29.934742078185081 5.9910285472869864 11.483120709657667 4.9972244650125495 5.2456136345863333 5.2473454624414471 42.92302930355072 6.9939588904380789 39.149491161108017 42.188908651471138 93.10750350356102 14.215611934661867 4.9984949827194205 6.9723584204912177 8.2415540516376478 6.7465870231390026 17.741025134921074 6.4708307683467856 40.872667565941811
leaf_count=23 23 20 40 21 20 38 34 20 74 28 35 120 24 46 20 21 21 172 28 157 169 373 57 20 28 33 27 71 26 164
internal_value=-0.000361506 0.00545163 -0.018945 0.0147189 0.0181322 -0.0100989 0.000932502 -2.26857e-05 -0.00519907 0.00801303 0.0251851 0.00723427 -0.0272537 -0.0228093 -0.0286364 -0.00891464 -0.0263455 -0.00743137 0.00702075 0.00930234 -0.000734882 -0.00944544 0.00388 -0.00417266 0.0171567 -0.0112128 -0.0386596 -0.0458499 0.0204478 0.0326543
internal_weight=487.309 371.195 116.114 121.676 106.965 14.7113 249.519 243.793 140.521 34.1784 15.7081 61.1071 67.4437 57.4519 45.9688 15.4902 10.493 48.6706 103.272 96.2779 50.6576 106.342 56.1212 34.9332 21.188 101.349 30.4786 23.7321 45.6203 45.8575
internal_count=1953 1488 465 488 429 59 1000 977 563 137 63 245 270 230 184 62 42 195 414 386 203 426 225 140 85 406 122 95 183 184
is_linear=0
shrinkage=0.05


Tree=2
num_leaves=31
num_cat=0
split_feature=1 5 1 1 5 1 3 3 0 1 1 1 5 3 3 1 3 5 2 5 5 3 1 0 5 3 3 5 5 3
split_gain=27.3672 12.8881 6.61312 4.53986 6.55283 4.11277 4.1742 6.4686 3.97031 3.99849 5.76076 5.54567 3.66016 4.01542 6.99526 4.34676 3.37162 3.33279 3.08977 6.40401 3.02458 2.94096 2.83388 2.71624 3.2972 3.19877 2.66246 2.63753 5.05973 6.4957
threshold=0.10960575193166734 -1.6833333373069761 -0.055012781172990792 0.018328418955206875 -2.6833333969116206 0.12792263180017474 0.82857143878936779 2.7500000000000004 3.5000000000000004 -0.0056046012323349706 -0.13904565572738645 -0.14984671026468274 0.050000000745058289 1.8285713791847231 2.6499999761581425 0.021777584217488769 0.50694444775581371 0.55000001192092907 0.27916666865348821 3.6499999761581425 -3.0499999523162837 -2.783333301544189 -0.0079238316975533945 -2.4999999999999996 1.0249999761581423 -1.0000000180025095e-35 -1.9083333015441892 0.97619047760963451 0.27500000596046453 -0.68333333730697621
decision_type=2 2 2 2 2 2 2 2 2 2 2 2 2 2 2 2 2 2 2 2 2 2 2 2 2 2 2 2 2 2
left_child=1 2 20 4 -4 17 27 18 9 10 11 16 -11 15 -15 -14 -3 -2 -8 -20 21 -1 -10 25 -25 -12 -5 28 29 -7
right_child=5 8 3 26 -6 6 7 -9 22 12 23 -13 13 14 -16 -17 -18 -19 19 -21 -22 -23 -24 24 -26 -27 -28 -29 -30 -31
leaf_value=0.013529827407808165 0.074299935564453565 -0.0059546314614645603 0.049755547530659555 -0.050483516773263182 -0.0085710846695372846 0.038619029130720212 0.025557892630463791 -0.017758308091077223 -0.0044284551300729945 0.018582591973277131 0.039768139082774476 0.059399839500756481 0.017188666741710813 0.051487530473065639 -0.015189451478847782 -0.010895643321602436 0.036905408769336033 0.027765352238928648 0.082386595515507741 0.015022425190647302 -0.036685531542379635 -0.024716728920060309 -0.046281779031051191 -0.01935232812781857 0.0020335786941546637 -0.014251709999490337 -0.0073552098064207858 -0.0069073632643499461 0.04912020272248676 -0.037617109079408101
leaf_weight=6.4955425262451199 6.7388475984334937 19.700128644704826 7.4874637424945822 5.7441382706165305 13.493607223033907 5.2390404790639877 17.431681543588638 5.7358734905719748 8.4794028401374835 46.127545028924942 5.4794295132160187 5.4882210195064536 18.454127281904221 9.4558086991310137 6.7356407791376105 54.370189487934113 5.9818139821290961 8.9682245552539808 9.2001433074474317 5.7224922925233832 46.712474182248116 22.220317810773849 7.7328781634569159 66.849140867590904 24.676001861691475 5.4822412282228452 9.4914239048957807 16.964671775698662 8.4862189292907697 5.9872829914093035
leaf_count=26 27 79 30 23 54 21 70 23 34 185 22 22 74 38 27 218 24 36 37 23 187 89 31 268 99 22 38 68 34 24
internal_value=-0.000342926 -0.00600294 -0.0204032 -0.00284145 0.0122438 0.0244716 0.0195855 0.0311784 -0.00036209 0.00108721 -0.00504483 0.0137777 0.0071518 0.00122843 0.0237499 -0.00377891 0.00402829 0.0477302 0.0398541 0.056554 -0.0288353 -0.0160653 -0.0243915 -0.0107695 -0.0135865 0.0127513 -0.0236155 0.00754599 0.0199846 -0.00203964
internal_weight=487.132 396.658 111.645 36.2166 20.9811 90.4745 74.7674 38.0902 285.013 268.8 133.657 31.1702 135.143 89.0158 16.1914 72.8243 25.6819 15.7071 32.3543 14.9226 75.4283 28.7159 16.2123 102.487 91.5251 10.9617 15.2356 36.6772 19.7125 11.2263
internal_count=1953 1590 447 145 84 363 300 153 1143 1078 536 125 542 357 65 292 103 63 130 60 302 115 65 411 367 44 61 147 79 45
is_linear=0
shrinkage=0.05


Tree=3
num_leaves=31
num_cat=0
split_feature=1 5 1 5 1 4 3 3 3 2 5 4 3 3 2 5 3 5 4 3 3 4 4 3 1 4 1 4 2 1
split_gain=24.7387 11.6286 6.2474 3.81634 3.72872 4.63796 3.78744 5.8635 3.02149 2.92577 3.20492 3.28204 5.69542 4.29547 2.82475 5.86735 2.81292 2.38382 5.18848 2.37632 5.04598 4.16993 3.55632 4.62506 2.21526 2.04547 1.97483 2.14604 1.84444 1.82554
threshold=0.10960575193166734 -1.6833333373069761 -0.1452272683382034 -2.7958333492279048 0.12792263180017474 -0.31666667759418482 0.82857143878936779 2.7500000000000004 -1.7888888716697691 -0.45555555820465082 -2.9750000238418575 0.89444443583488475 -0.55000001192092884 -2.1499999761581416 0.27916666865348821 3.6499999761581425 -2.2749999761581416 0.97619047760963451 -0.68928569555282582 3.1055555343627934 1.8285713791847231 -0.96428570151329029 0.24444445222616198 1.2111111283302309 -0.17687211930751798 -0.47222222387790674 0.20474186539649966 -1.9624999761581419 -0.21111111342906949 0.066782038658857359
decision_type=2 2 2 2 2 2 2 2 2 2 2 2 2 2 2 2 2 2 2 2 2 2 2 2 2 2 2 2 2 2
left_child=1 2 3 8 5 -2 17 14 -1 -4 28 13 -13 -12 -8 -16 -3 18 -6 20 22 -22 25 -24 -5 -18 27 -19 -11 -23
right_child=4 16 9 24 6 -7 7 -9 -10 10 11 12 -14 -15 15 -17 19 26 -20 -21 21 29 23 -25 -26 -27 -28 -29 -30 -31
leaf_value=-0.035326380461298455 0.022664605367105052 0.03365040491111871 0.02455512136750743 -0.041124695887698889 0.059093885040921272 0.077927538964189233 0.024322047274203035 -0.016857392566520822 0.0038876035247275148 -0.0083261763861301706 -0.027538515145955456 -0.05597550134141225 -0.012028541529712826 0.021322347421731645 0.078883159637767736 0.014287060419507894 -0.0028479895067062958 0.026856262750622514 0.0025741645531323003 -0.031578550863302933 0.062652085895143983 0.00064064043008737667 0.011177079916870683 -0.018802489417356849 -0.079726384956632687 -0.014753174696485669 -0.031232300897697518 -0.016377458645557293 0.024839886625882615 0.035776644501491948
leaf_weight=12.741218090057375 9.1994298100471479 5.9582620263099662 5.4931612461805335 14.493984147906305 5.7256361246109035 6.4646054804325095 17.402292728424072 5.7401799112558356 7.9943752735853186 10.481657236814501 8.9960240274667758 12.491039142012598 17.990852281451225 8.9963534474372846 9.1300109773874265 5.7163408845663062 109.25090962648392 5.7387778609991082 13.962252661585806 6.2396756261587134 4.9645003229379681 12.702024206519129 71.057249993085861 15.709040105342863 4.9983774274587622 53.869653612375259 5.4877309054136267 5.7425878345966348 6.9857923537492743 5.2143949866294852
leaf_count=51 37 24 22 58 23 26 70 23 32 42 36 50 72 36 37 23 438 23 56 25 20 51 285 63 20 216 22 23 28 21
internal_value=-0.000324907 -0.00570262 -0.0193794 -0.0351394 0.0232933 0.0454718 0.0186392 0.0297026 -0.0202079 -0.0105043 -0.0134248 -0.0200418 -0.0300374 -0.00310764 0.0379902 0.0540115 -0.000343427 0.0071738 0.0190112 -0.00106937 -0.000371463 0.0221026 -0.0024293 0.00574928 -0.0510232 -0.00677961 -0.00656024 0.00523223 0.00493799 0.0108666
internal_weight=486.938 396.629 111.663 40.228 90.3098 15.664 74.6458 37.9888 20.7356 71.4349 65.9417 48.4743 30.4819 17.9924 32.2486 14.8464 284.966 36.657 19.6879 279.007 272.768 22.8809 249.887 86.7663 19.4924 163.121 16.9691 11.4814 17.4674 17.9164
internal_count=1953 1590 447 161 363 63 300 153 83 286 264 194 122 72 130 60 1143 147 79 1119 1094 92 1002 348 78 654 68 46 70 72
is_linear=0
shrinkage=0.05


Tree=4
num_leaves=31
num_cat=0
split_feature=1 1 0 1 1 4 3 3 4 4 3 4 2 4 2 4 0 3 4 2 1 2 2 4 4 2 4 0 4 4
split_gain=22.3764 7.80504 4.0804 3.90777 3.38868 4.24474 3.44208 5.32115 2.86208 4.45366 3.08999 4.5863 3.6454 2.75803 2.59562 4.71215 2.42011 2.35804 2.50911 2.35259 2.18485 2.736 2.12666 2.0468 2.94139 1.74856 1.69899 1.69593 1.00126 1.19191
threshold=0.10960575193166734 -0.035593800246715539 4.5000000000000009 -0.24948107451200482 0.12792263180017474 -0.31666667759418482 0.82857143878936779 2.7500000000000004 -2.8500000238418575 -1.7749999761581419 -0.55000001192092884 -0.36904762685298914 -0.077380955219268785 -2.3500000238418575 0.27916666865348821 -1.9624999761581419 1.0000000180025095e-35 -0.94999998807907093 1.1125000119209292 -0.45555555820465082 -0.038890235126018517 0.17261905223131183 -0.097619049251079545 -1.571428596973419 0.24444445222616198 0.27916666865348821 -2.5499999523162837 -1.0000000180025095e-35 -0.42261904478073115 -1.0142857432365415
decision_type=2 2 2 2 2 2 2 2 2 2 2 2 2 2 2 2 2 2 2 2 2 2 2 2 2 2 2 2 2 2
left_child=1 3 8 17 5 -2 23 14 -3 13 11 -11 -12 -10 27 -16 -15 18 -1 -5 21 22 -21 26 28 -23 -6 -8 29 -25
right_child=4 2 -4 19 6 -7 7 -9 9 10 12 -13 -14 16 15 -17 -18 -19 -20 20 -22 25 -24 24 -26 -27 -28 -29 -30 -31
leaf_value=-0.060120894112467994 0.021570188235265637 -0.032367520714363572 -0.040299677686998492 0.017390034447114976 0.010773429503243965 0.074567285263106992 0.0066036534281394971 -0.016005197955499619 -0.0007477415346406717 0.0082724269721947581 0.01940153917401263 -0.022826737650410475 0.00012589714861596608 0.018486507589282088 0.018410056881373385 0.075693061666135542 0.062156563886606064 -0.0071617986147463203 -0.022500111548570303 -0.0083123302738490543 -0.043854020276250003 0.026252629900204102 -0.021983517589062418 0.034153804967474381 -0.016469717669847568 -0.010959360146057775 -0.027518964347958065 0.037902726210239067 0.041839118816240389 0.0040471334848372186
leaf_weight=8.7376677542924934 9.1832900345325452 5.7434806972742072 5.7469560205936423 7.4893755316734305 5.2362143397331238 6.4192288219928733 8.1862329095602 5.7434348613023749 6.2301169931888607 20.452690497040749 32.893464937806129 28.20183826982975 96.449849620461464 6.4789230823516828 6.1819961816072455 8.5628735572099668 6.216655045747757 7.2318173944950095 8.9942451119422895 97.299176320433617 4.9887761175632468 7.974725589156149 40.198752269148827 5.7272121608257311 5.7403191924095145 5.225373849272728 6.4833633899688703 9.182902023196224 5.7260962128639248 7.7170888781547546
leaf_count=35 37 23 23 30 21 26 33 23 25 82 132 113 387 26 25 35 25 29 36 390 20 32 161 23 23 21 26 37 23 31
internal_value=-0.000307964 -0.00541828 0.00124647 -0.0128012 0.0221863 0.0433744 0.0177482 0.0283208 0.00242458 0.00343933 0.00098745 -0.00975372 0.00502791 0.0264994 0.0362483 0.0516763 0.0398705 -0.0312245 -0.0410383 -0.0099827 -0.0112995 -0.0102218 -0.0123092 0.00682135 0.0149282 0.0115219 -0.0104102 0.0231512 0.0243299 0.0168724
internal_weight=486.644 396.554 208.414 188.14 90.0903 15.6025 74.4877 37.8574 202.667 196.924 177.998 48.6545 129.343 18.9257 32.114 14.7449 12.6956 24.9637 17.7319 163.176 155.687 150.698 137.498 36.6303 24.9107 13.2001 11.7196 17.3691 19.1704 13.4443
internal_count=1953 1590 836 754 363 63 300 153 813 790 714 195 519 76 130 60 51 100 71 654 624 604 551 147 100 53 47 70 77 54
is_linear=0
shrinkage=0.05


Tree=5
num_leaves=31
num_cat=0
split_feature=1 5 1 4 4 5 5 1 1 0 5 4 4 0 5 1 5 5 5 0 2 4 4 2 2 1 4 5 2 1
split_gain=24.8612 10.0514 7.05819 6.17246 5.16721 4.79776 3.92153 3.90424 3.61555 3.45255 3.43836 3.80232 6.79672 3.37456 3.0977 3.09369 6.48182 3.14686 6.12914 4.31848 2.79003 3.99555 2.64681 4.42259 2.99559 4.43209 3.43473 2.56024 2.18368 2.69424
threshold=0.082956437021493926 -1.6833333373069761 -0.1425705477595329 -0.42261904478073115 0.24444445222616198 -2.6833333969116206 -2.8964285850524898 0.07067893818020822 0.32342249155044561 1.0000000180025095e-35 -1.4583333134651182 0.63333335518836986 0.70714285969734203 1.0000000180025095e-35 0.10555555671453477 0.05893597565591336 1.7500000000000002 1.0249999761581423 0.45000000298023229 -2.4999999999999996 -0.11805555596947669 1.1125000119209292 -2.2499999999999996 0.39047619700431829 0.17261905223131183 0.13018435239791873 0.24444445222616198 -3.7499999999999996 -0.077380955219268785 -0.063407097011804567
decision_type=2 2 2 2 2 2 2 2 2 2 2 2 2 2 2 2 2 2 2 2 2 2 2 2 2 2 2 2 2 2
left_child=1 2 6 -4 7 13 27 15 20 -9 -6 28 -13 -5 -14 17 -17 18 -3 -19 -2 22 23 -22 25 -24 -26 -1 29 -12
right_child=8 4 3 5 10 -7 -8 9 -10 -11 11 12 14 -15 -16 16 -18 19 -20 -21 21 -23 24 -25 26 -27 -28 -29 -30 -31
leaf_value=-0.034505378976319188 0.047470098040554097 -0.0032300024996149614 -0.060513990724939251 0.026351787309599268 0.040156738570880396 -0.015743418426296837 -0.050036419302929416 -0.065024473560045939 0.051590656740520859 -0.0081239511914296871 0.0087344160153043412 -0.052673683582373898 0.01115177683598367 -0.0097922638166927003 -0.018000296171478185 0.052608135194641671 -0.019204707399482455 -0.034634619172529621 -0.033311742403902687 0.0087907467136299957 -0.034913832420152884 -0.022551407089334091 0.030789812820212065 0.026623987206974925 0.024880727812102574 -0.002147989070564385 0.063331509056482618 0.0013920042730311336 0.0074622609168291266 0.05311431463635026
leaf_weight=11.495368435978891 7.678843840956687 60.854628413915634 5.2465239167213431 16.217673346400264 8.2205171883106214 37.208177343010902 20.456429034471512 4.9841974079608899 8.8666161149740201 5.7316362261772156 5.7376220226287833 5.7342814803123465 40.871151179075241 10.73068945109844 11.727266520261763 6.9771941751241666 5.7167411893606186 6.4810504019260398 23.461106434464455 49.084778442978859 5.7320983409881574 6.2395551055669776 18.137507289648056 5.9506313055753708 36.051902949810028 23.376169189810753 6.9232780486345282 8.7460983842611295 14.206815689802168 8.4656607061624545
leaf_count=46 31 244 21 65 33 149 82 20 36 23 23 23 164 43 47 28 23 26 94 197 23 25 73 24 146 94 28 35 57 34
internal_value=0.00100199 -0.00541584 -0.0180655 -0.00837117 -2.29412e-05 -0.00410709 -0.0345975 -0.00541644 0.0208752 -0.0345898 0.00925128 0.00632241 -0.000983223 0.0119594 0.00465207 -0.00336751 0.0202671 -0.00551229 -0.0116003 0.00372573 0.0184013 0.0162217 0.0187373 -0.00356937 0.0218218 0.0122427 0.0310751 -0.0189945 0.0213226 0.0351864
internal_weight=487.312 368.356 110.101 69.4031 258.255 64.1565 40.6979 163.291 118.957 10.7158 94.9633 86.7428 58.3327 26.9484 52.5984 152.575 12.6939 139.882 84.3157 55.5658 110.09 102.411 96.1716 11.6827 84.4889 41.5137 42.9752 20.2415 28.4101 14.2033
internal_count=1957 1477 441 278 1036 257 163 655 480 43 381 348 234 108 211 612 51 561 338 223 444 413 388 47 341 167 174 81 114 57
is_linear=0
shrinkage=0.05


Tree=6
num_leaves=29
num_cat=0
split_feature=1 1 3 1 1 4 3 0 3 3 0 1 3 3 2 2 4 1 1 1 4 1 0 4 2 3 4 3
split_gain=22.4832 8.49152 4.383 5.77938 9.82248 4.36315 4.10819 4.68572 4.67223 4.21002 3.68983 3.29911 3.83188 4.8094 3.23796 2.88937 2.75926 3.41953 2.74878 2.73912 4.16506 3.1068 1.92153 1.80781 1.65814 1.55698 0.932294 0.315917
threshold=0.082956437021493926 -0.25668340921401972 0.18928571790456775 0.07067893818020822 0.047428922727704055 2.5249999761581425 3.1055555343627934 1.0000000180025095e-35 0.50694444775581371 2.0388889312744145 1.0000000180025095e-35 0.32342249155044561 1.5416666865348818 2.6499999761581425 -0.11805555596947669 -0.042857143096625798 1.0285714268684389 0.10469309613108636 -0.024968434125185009 -0.063407097011804567 2.1499999761581425 -0.0032957028597593303 -1.0000000180025095e-35 -2.2499999999999996 0.25833334028720861 -1.8874999880790708 -0.63333335518836964 -1.0976190567016599
decision_type=2 2 2 2 2 2 2 2 2 2 2 2 2 2 2 2 2 2 2 2 2 2 2 2 2 2 2 2
left_child=1 10 3 4 5 15 7 19 18 -10 25 12 14 24 -2 -3 17 26 -9 20 -4 -21 -6 -19 -14 -1 -16 -27
right_child=11 2 6 -5 22 -7 -8 8 9 -11 -12 -13 13 -15 16 -17 -18 23 -20 21 -22 -23 -24 -25 -26 27 -28 -29
leaf_value=-0.045130595274131435 0.043917948929501273 -0.006292378813846311 0.028889465228138712 -0.050190609686537407 0.058780662778372253 0.026559607347716792 -0.032940172726484411 0.018868252695261007 0.0034043903694482278 0.052376907698155395 -0.066875774481691797 0.049308909668975449 0.03330571944098961 0.0046795204403890511 0.046651339106374756 -0.01985283376071937 -0.024053818778581152 -0.014440183023469886 0.066364133684500046 -0.025621959649094774 -0.023657209705177568 -0.00010064437731702994 0.019489077149204517 0.010333635496364894 0.064687902747547196 -0.019305732917553373 0.020780796666469321 -0.0020989362202765353
leaf_weight=4.9821958392858514 7.4020426273345938 122.18212074041367 13.458250492811205 7.7379572242498389 5.4695026576519012 8.2376980632543546 7.2408694475889197 5.7424757778644562 38.099710464477539 4.9598293900489798 6.4809077382087699 8.8143865615129453 7.8976354300975862 8.934406176209448 7.2220012843608856 57.896023347973824 5.7403720915317527 8.6899234503507525 6.4880512654781324 17.206189781427383 5.2391978651285163 38.84857214987278 7.2179670631885511 48.258167788386352 9.0124362707138044 5.7357398271560669 6.7253804057836515 4.9867970794439316
leaf_count=20 30 490 54 31 22 33 29 23 153 20 26 36 32 36 29 232 23 35 26 69 21 156 29 195 37 23 27 20
internal_value=0.00095345 -0.0051468 -0.00322417 -0.00778776 -0.00615539 -0.00902434 0.00371485 0.00575583 0.0167916 0.00904531 -0.0351338 0.0198771 0.0175162 0.0343532 0.0123382 -0.0106521 0.00928802 0.0119877 0.0440639 -0.00240674 0.0141654 -0.00793449 0.0364275 0.00655331 0.0500313 -0.0220347 0.0341767 -0.0113033
internal_weight=486.907 368.21 346.024 208.741 201.003 188.316 137.283 130.042 55.2901 43.0595 22.1856 118.697 109.882 25.8445 84.0379 180.078 76.6358 70.8955 12.2305 74.7522 18.6974 56.0548 12.6875 56.9481 16.9101 15.7047 13.9474 10.7225
internal_count=1957 1477 1388 837 806 755 551 522 222 173 89 480 444 105 339 722 309 286 49 300 75 225 51 230 69 63 56 43
is_linear=0
shrinkage=0.05


Tree=7
num_leaves=31
num_cat=0
split_feature=1 5 1 5 1 1 1 2 1 2 1 1 5 3 2 1 2 1 3 5 3 1 3 0 5 5 1 3 1 1
split_gain=20.3379 8.83189 6.11929 5.61285 4.819 5.54984 5.5721 4.19464 4.29396 4.84097 3.91406 3.86827 3.47983 3.32479 3.12512 3.04243 2.99456 3.26416 2.7776 7.99685 4.68917 2.55272 2.441 3.66406 2.33255 2.32695 3.83869 2.45402 2.9287 2.23097
threshold=0.082956437021493926 -1.6833333373069761 -0.1425705477595329 -2.3666666746139522 0.019172166474163536 -0.058129118755459779 -0.083153735846281038 -0.097619049251079545 0.0087064150720834749 -0.11805555596947669 -0.14019770920276639 -0.10862623900175093 -2.8964285850524898 -2.1499999761581416 0.27916666865348821 0.026746910065412525 -0.11805555596947669 0.26091629266738897 0.25000000745058065 -0.18333333730697629 -0.87857142090797413 0.20921104401350024 1.5416666865348818 1.0000000180025095e-35 -3.7499999999999996 -6.6613381477509383e-16 -0.048438204452395432 1.0000000180025095e-35 -0.10243009403347968 0.20921104401350024
decision_type=2 2 2 2 2 2 2 2 2 2 2 2 2 2 2 2 2 2 2 2 2 2 2 2 2 2 2 2 2 2
left_child=1 2 12 4 5 6 -4 8 25 -10 -9 -12 24 -5 16 -15 -2 21 20 -20 -13 22 23 -18 -1 27 -27 -3 -29 -16
right_child=14 7 3 13 -6 -7 -8 10 9 -11 11 18 -14 15 29 -17 17 -19 19 -21 -22 -23 -24 -25 -26 26 -28 28 -30 -31
leaf_value=-0.03230018028668926 0.043328292819116515 -0.0093370996769909578 0.018107048957900034 -0.058721129506529593 -0.034934903413971083 0.040465449941584936 -0.03611997103604056 0.024097600598565132 -0.0009651628851981499 0.04508374336298384 -0.039120531453110882 0.0073669543797105956 -0.046758282007201335 -0.024231005966181975 0.042241236657466208 0.019186976265412901 -0.0045893222906206481 0.046823708707456863 0.042452783733075934 -0.0047551348384075182 -0.022805340879921226 -0.023909187820281903 0.03462910809221692 0.022063374447350358 0.0019726871890114019 -0.0084450341831318037 0.042132118894983112 0.034416422437869784 -0.0060888354493515776 0.017568049944587973
leaf_weight=11.482651099562647 7.6094496697187415 38.891726285219193 12.23229591548443 5.4846510291099575 6.2411842495203009 11.708235517144205 7.7314724475145331 10.975342050194739 9.4517954587936401 14.406527459621429 8.7367661744356138 18.949586853384972 20.373976811766624 20.970521792769436 20.102753296494484 4.9960529357194892 31.536303251981735 5.6740855127573004 10.22320833802223 73.224873632192612 40.184101775288582 5.9588675945997229 8.8743142038583738 21.81495413184166 8.7454725354909879 6.7326044589281073 8.4728945791721326 8.452788323163988 9.4537557512521726 16.833984702825546
leaf_count=46 31 156 49 22 25 47 31 44 38 58 35 76 82 84 82 20 127 23 41 294 161 24 36 88 35 27 34 34 38 69
internal_value=0.000907368 -0.00489036 -0.0167566 -0.00773262 0.00522177 0.0131349 -0.00289373 0.000164275 0.00845713 0.0268408 -0.00473406 -0.00682526 -0.032173 -0.0233486 0.0189326 -0.0158772 0.013463 0.0103861 -0.00484636 0.0010283 -0.0131365 0.00735386 0.0103477 0.00630878 -0.0174826 0.00236571 0.0197379 -0.00228499 0.0130317 0.0309964
internal_weight=486.527 368.122 109.967 69.3644 37.9132 31.672 19.9638 258.156 95.8621 23.8583 162.294 151.319 40.6021 31.4512 118.405 25.9666 81.468 73.8585 142.582 83.4481 59.1337 68.1844 62.2256 53.3513 20.2281 72.0038 15.2055 56.7983 17.9065 36.9367
internal_count=1957 1477 441 278 152 127 80 1036 385 96 651 607 163 126 480 104 329 298 572 335 237 275 251 215 81 289 61 228 72 151
is_linear=0
shrinkage=0.05


Tree=8
num_leaves=31
num_cat=0
split_feature=1 5 1 4 4 5 1 3 5 5 3 2 4 5 5 4 1 3 3 1 1 4 1 1 5 1 1 2 1 1
split_gain=18.3966 7.98649 5.54334 5.20791 4.24942 3.97337 3.31217 3.281 5.99092 5.49027 4.35484 3.22579 4.35472 3.1885 3.17123 2.98304 2.96896 3.23723 4.41647 2.71908 4.96213 2.56178 4.84482 5.13302 3.08083 3.89119 2.88809 2.45301 5.94829 2.43471
threshold=0.082956437021493926 -1.6833333373069761 -0.1425705477595329 -0.42261904478073115 0.24444445222616198 -2.6833333969116206 0.07067893818020822 1.2111111283302309 -0.76250001788139332 -1.4583333134651182 2.2500000000000004 -0.11805555596947669 0.77500000596046459 -0.18333333730697629 -2.8964285850524898 0.89444443583488475 0.32342249155044561 1.5416666865348818 2.6499999761581425 0.166800431907177 0.18060036003589633 -0.96428570151329029 0.019172166474163536 -0.13740816712379453 0.31666667759418493 -0.024968434125185009 0.035732043907046325 -0.21111111342906949 -0.055012781172990792 0.021777584217488769
decision_type=2 2 2 2 2 2 2 2 2 2 2 2 2 2 2 2 2 2 2 2 2 2 2 2 2 2 2 2 2 2
left_child=1 2 14 -4 6 27 21 8 9 -6 13 -10 -13 -9 -1 -15 17 19 -19 -2 -21 24 23 -23 25 -3 -24 28 -5 -26
right_child=16 4 3 5 7 -7 -8 10 11 -11 -12 12 -14 15 -16 -17 -18 18 -20 20 -22 22 26 -25 29 -27 -28 -29 -30 -31
leaf_value=-0.016619170909169392 0.017450400670729473 -0.0010143834758043339 -0.055375398079692939 -0.024474143683926086 0.037996339002841072 -0.014035570223185479 -0.031587104043924244 0.0079106705664669583 0.00042503426954245967 -0.0080412252110508165 0.019345779123841222 0.020185558125257103 0.064208888877988174 -0.012548366230264875 -0.044598117813066884 -0.065309288023847001 0.046107812893938421 0.046530063483615144 0.002932334540982864 -0.044474480239797505 0.0086563626424118311 0.014493216629296455 0.035279339551162588 -0.024807893787857863 0.005360159675573805 0.046592686881162103 -0.0020310635886828044 0.033004575424762268 0.033152054851445949 -0.016858088146280245
leaf_weight=20.215617641806602 55.621637582778931 8.7257973551750201 5.2204357683658591 10.232845380902292 8.1936912983655912 37.165995046496391 10.727593705058096 5.7239284515380904 6.4600896537303951 30.892473071813583 10.21479222178459 12.180205017328264 10.425562083721159 5.4873790144920349 20.294756084680557 5.234628438949585 8.7203978747129423 16.688547313213352 8.9102146923542005 5.4474135637283352 22.737025395035744 10.232956543564795 7.4760844558477428 44.168656125664711 38.384327545762062 8.4475084841251356 16.937413468956947 8.7147025614976865 7.9627185165882137 18.165406793355942
leaf_count=81 225 35 21 41 33 149 43 23 26 124 41 49 42 22 82 21 36 69 36 22 92 41 30 177 154 34 68 35 32 73
internal_value=0.000863537 -0.00464874 -0.0159429 -0.00735337 0.00015667 -0.00344091 -0.00473261 0.00857592 0.0143934 0.0016097 -0.00629519 0.0315843 0.0404887 -0.0222211 -0.030636 -0.038307 0.0180308 0.0157929 0.0313549 0.0110394 -0.00161263 -0.00284401 -0.00911085 -0.0174153 0.00385569 0.0224034 0.00939441 0.0111915 0.000744157 -0.00177698
internal_weight=486.011 367.886 109.807 69.2967 258.078 64.0763 163.266 94.8127 68.152 39.0862 26.6607 29.0659 22.6058 16.4459 40.5104 10.722 118.125 109.405 25.5988 83.8061 28.1844 152.538 78.8151 54.4016 73.723 17.1733 24.4135 26.9103 18.1956 56.5497
internal_count=1957 1477 441 278 1036 257 655 381 274 157 107 117 91 66 163 43 480 444 105 339 114 612 316 218 296 69 98 108 73 227
is_linear=0
shrinkage=0.05


Tree=9
num_leaves=31
num_cat=0
split_feature=5 5 5 5 4 3 5 2 4 2 3 5 3 4 3 3 4 3 2 5 5 5 4 0 5 0 0 0 3 5
split_gain=13.844 4.2005 3.99731 6.26663 2.77926 2.77097 2.21851 3.17175 2.75763 2.14352 4.95088 4.12136 3.18873 2.06835 4.13019 4.54187 2.55263 4.05021 1.78259 3.01525 3.318 2.92183 3.88573 2.76465 1.88691 1.77192 1.69101 2.36834 1.55224 0.998945
threshold=-1.6833333373069761 -2.9750000238418575 1.9499999880790713 1.8333333134651186 -2.5499999523162837 -1.1500000357627866 -3.1499999761581416 -0.45555555820465082 2.0499999523162846 -0.11805555596947669 -0.46428571641445154 -2.2499999999999996 -0.25000000745058054 0.24444445222616198 2.5499999523162846 1.6125000119209292 -1.4777777791023252 0.82857143878936779 -0.097619049251079545 1.3499999642372134 -0.18333333730697629 -0.65000000596046437 0.35000000894069677 3.5000000000000004 1.5500000119209292 1.0000000180025095e-35 1.0000000180025095e-35 -1.0000000180025095e-35 3.1055555343627934 -2.4583333730697627
decision_type=2 2 2 2 2 2 2 2 2 2 2 2 2 2 2 2 2 2 2 2 2 2 2 2 2 2 2 2 2 2
left_child=1 5 3 4 -2 6 7 8 -1 10 29 -12 25 14 15 16 17 -4 21 20 -20 22 -6 -23 -21 -11 27 -9 -16 -3
right_child=2 9 13 -5 18 -7 -8 26 -10 12 11 -13 -14 -15 28 -17 -18 -19 19 24 -22 23 -24 -25 -26 -27 -28 -29 -30 -31
leaf_value=0.034541752809992103 -0.029966271857702245 -0.04724323657722207 0.0021154595102209563 -0.048067164616565183 -0.01600021454346531 0.029907871820549287 0.021157398237235822 -0.03024770996631114 -0.015638202785968437 0.014643969915553496 0.033690583398906411 -0.023446378086199687 -0.039743752715689584 0.043316740469085152 -0.033302798713348708 0.036393154355172777 -0.010412479238527077 0.036468405094484402 0.0092852958288023781 0.032725400423523836 -0.0074707569488896789 0.022258563830132777 0.01198715199445903 -0.015374997552038139 0.0064995125779684776 -0.017761103494931575 -0.049251358807971067 0.011495748583117077 0.0025691317441617766 -0.030255453850524736
leaf_weight=5.473408102989195 5.9740159064531317 13.613891333341593 21.649381324648857 5.9587120860815039 19.936423152685165 5.9804654270410529 5.9547257721424094 9.7063076794147509 5.478146106004715 10.702064752578741 5.2256523966789246 7.9689933061599714 6.2255879491567603 5.9542388916015616 5.650522977113722 21.818735688924789 12.624554544687269 14.212833955883978 44.038470059633255 10.424765020608904 89.765432044863701 45.351166859269142 32.815590247511864 5.4685617834329596 20.048752889037132 6.9632221311330786 4.9911057800054541 5.2280422151088741 6.4673697352409363 23.752159997820858
leaf_count=22 24 55 87 24 80 24 24 39 22 43 21 32 25 24 23 90 51 58 177 42 361 183 132 22 81 28 20 21 26 96
internal_value=0.000822181 -0.0141394 0.00558764 0.00265946 0.00376334 -0.00166004 -0.0067858 -0.0121747 0.00944092 -0.0213154 -0.0271473 -0.000817661 -0.00897339 0.0148575 0.0128016 0.0174484 0.00892336 0.0157301 0.00451563 0.00127684 -0.00195589 0.00965274 0.00140996 0.0182089 0.0154712 0.00187069 -0.0240553 -0.0156346 -0.0141578 -0.0364448
internal_weight=485.423 117.264 368.16 279.782 273.823 42.8122 36.8317 30.877 10.9516 74.4516 50.5607 13.1946 23.8909 88.3776 82.4234 70.3055 48.4868 35.8622 267.849 164.277 133.804 103.572 52.752 50.8197 30.4735 17.6653 19.9255 14.9343 12.1179 37.3661
internal_count=1957 472 1485 1126 1102 172 148 124 44 300 204 53 96 359 335 286 196 145 1078 661 538 417 212 205 123 71 80 60 49 151
is_linear=0
shrinkage=0.05


Tree=10
num_leaves=31
num_cat=0
split_feature=1 3 5 2 1 3 1 1 1 1 1 2 5 5 1 3 3 1 4 4 2 1 1 4 5 5 2 1 1 1
split_gain=18.473 9.33527 4.85411 5.0034 4.35012 5.44956 5.40797 4.00112 3.90712 3.72277 3.36787 3.26896 5.83097 6.26161 3.46802 2.98845 2.8618 2.40919 2.32213 5.60108 5.22734 2.72436 7.21776 3.85411 2.22477 2.21911 4.47089 2.0846 3.74699 4.48119
threshold=0.0042284999508410701 -2.3666666746139522 -0.65000000596046437 -0.097619049251079545 0.021130894310772422 1.0388888716697695 0.10960575193166734 0.20474186539649966 -0.0056046012323349706 0.26726190745830541 0.35486111044883734 0.17261905223131183 1.0249999761581423 3.0499999523162846 -0.029401092790067192 0.72499999403953563 -0.81111112236976612 0.1922762989997864 0.35000000894069677 1.1125000119209292 -1.0000000180025095e-35 0.04174910485744477 0.061976265162229545 -0.74999999999999989 3.2749999761581425 -4.7499999999999991 -0.49107143282890314 -0.13904565572738645 -0.046171549707651131 -0.06454600021243094
decision_type=2 2 2 2 2 2 2 2 2 2 2 2 2 2 2 2 2 2 2 2 2 2 2 2 2 2 2 2 2 2
left_child=2 -2 8 27 5 -3 18 17 15 -9 -11 16 -13 14 -14 25 -5 24 21 -20 -21 23 -23 -6 -8 -1 -27 -4 29 -29
right_child=1 4 3 11 6 -7 7 9 -10 10 -12 12 13 -15 -16 -17 -18 -19 19 20 -22 22 -24 -25 -26 26 -28 28 -30 -31
leaf_value=-0.048168152550067941 -0.042739624330259067 0.049629222489100261 0.041344931893677772 0.011956580152319419 -0.041775678032730475 -0.0031923712200986284 0.026672871086957702 -0.016220378284221498 0.025383669033679165 0.034609484351558598 -0.014485545051257777 -0.033633323292666023 0.010698878823977468 -0.022125982626235809 0.060704792223312813 0.010651804197654749 -0.021583692420957722 0.05416261177127496 0.03305652055622986 0.016749016147648479 -0.037806513649883688 0.031141555763546408 -0.0081754371920278613 0.0025361868353188715 -0.0045416256907783482 0.014448139380835943 -0.020952364975611659 0.018135419474109484 0.028531011279050774 -0.03859406886086228
leaf_weight=6.4600583165884009 8.1581040024757367 15.171083852648737 5.9387812763452521 7.4899360537528983 9.4448088109493273 7.2004003822803488 44.186651483178139 13.01881977915764 5.4843747913837424 11.403822764754297 5.0356902927160254 7.2325686663389233 6.4769058972597158 6.4463809430599204 7.4614404737949354 8.7140240669250471 42.151315957307816 6.8837576657533637 17.344231769442558 10.164999291300775 7.7296349555253974 16.182926833629608 41.885870113968849 10.21362981200218 6.555217206478118 9.7056511640548688 110.03986725211143 7.2145934551954261 12.415435984730721 6.726834863424302
leaf_count=26 33 61 24 30 38 29 180 53 22 47 21 29 26 26 30 35 169 28 70 41 31 65 169 41 27 39 443 29 50 27
internal_value=-0.000415513 0.0097915 -0.0098312 -0.00194321 0.0117183 0.0326283 0.00937991 0.0187431 -0.015986 0.00375329 0.0195709 -0.00885176 0.00493723 0.0186222 0.0374679 -0.0176677 -0.0165231 0.0264059 0.00216197 0.0128087 -0.00681639 -0.00266488 0.00278164 -0.0187533 0.0226403 -0.019623 -0.0180831 0.0145836 0.0085537 -0.00923695
internal_weight=480.538 230.58 249.958 109.554 222.422 22.3715 200.05 87.084 140.404 29.4583 16.4395 77.2585 27.6173 20.3847 13.9383 134.92 49.6413 57.6256 112.966 35.2389 17.8946 77.7272 58.0688 19.6584 50.7419 126.206 119.746 32.2956 26.3569 13.9414
internal_count=1939 934 1005 440 901 90 811 356 565 121 68 310 111 82 56 543 199 235 455 142 72 313 234 79 207 508 482 130 106 56
is_linear=0
shrinkage=0.05


Tree=11
num_leaves=31
num_cat=0
split_feature=1 3 5 5 2 1 1 0 1 5 0 1 1 5 5 2 5 1 1 1 3 0 2 3 5 2 1 3 3 1
split_gain=16.69 8.42588 4.38717 4.13964 4.06137 5.26105 4.91465 4.70213 3.82688 3.65253 3.2859 2.59038 4.46619 3.79704 2.54377 2.96276 2.81932 2.05049 7.13208 4.82355 3.78204 3.8497 2.74966 3.2631 6.66308 4.1029 3.13743 4.55528 1.94274 1.6733
threshold=0.0042284999508410701 -2.3666666746139522 -1.6833333373069761 4.5198411941528329 0.39047619700431829 0.019172166474163536 0.10960575193166734 1.0000000180025095e-35 0.20474186539649966 0.55000001192092907 1.0000000180025095e-35 -0.05405954830348491 -0.071382608264684663 -2.4583333730697627 -4.7499999999999991 -0.3238095343112945 -2.9750000238418575 -0.16569615900516507 -0.14019770920276639 -0.15218688547611234 -0.70714285969734181 1.0000000180025095e-35 -0.11805555596947669 0.18928571790456775 0.10555555671453477 -0.077380955219268785 -0.073818754404783235 -0.25000000745058054 0.82857143878936779 -0.1425705477595329
decision_type=2 2 2 2 2 2 2 2 2 2 2 2 2 2 2 2 2 2 2 2 2 2 2 2 2 2 2 2 2 2
left_child=2 -2 11 4 5 9 7 -7 -8 -3 28 12 14 -13 -1 16 -16 20 19 -19 -4 -22 26 24 -24 -25 -20 -28 -6 -17
right_child=1 3 17 -5 10 6 8 -9 -10 -11 -12 13 -14 -15 15 29 -18 18 22 -21 21 -23 23 25 -26 -27 27 -29 -30 -31
leaf_value=-0.049700797507509727 -0.040570720337342041 0.051712533399183837 0.0080534645702490578 -0.022356341797572132 0.02559917768961642 -0.0071053282817884408 0.025156563972943087 0.015000226519771632 -0.0020200824809044589 0.0072537836182112875 0.010164916263258448 0.03077721943063862 -0.063475293184757794 -0.018603053547344994 0.015335202853678804 -0.032635826679727212 -0.020580515938997439 0.0038341891810358382 0.042464363922181197 0.073536469741307425 -0.011215767826850281 -0.067715689333577675 -0.035356048873481177 0.030601521205130974 0.0016556229675105877 -0.0063598022328003731 0.022956342600100543 -0.028806012057877767 0.065952166322438027 -0.012355783379113975
leaf_weight=5.9392236769199362 8.164327606558798 12.13264122605324 7.7302979379892376 8.8514619618654233 4.965802267193796 68.084485292434692 49.405558750033379 37.200643017888069 17.556952506303787 7.4605018347501746 8.9955185502767545 6.2043668776750591 5.9752658754587165 10.449526757001875 12.225227549672129 22.392945930361744 9.8798500895500165 4.9634484797716141 5.7237450927495983 4.9647995680570585 6.6942791789770109 5.4852905869483948 26.185046970844269 8.9161676913499814 22.703379914164543 47.546822503209114 9.4692914485931432 7.7119518369436237 7.4685675352811813 18.636225908994678
leaf_count=24 33 49 31 36 20 274 202 150 72 30 37 25 24 42 49 91 40 20 23 20 27 22 105 36 91 191 38 31 31 75
internal_value=-0.000394201 0.00931535 -0.00934537 0.011149 0.0125395 0.0102334 0.00744082 0.00070528 0.0180311 0.0347839 0.0331839 -0.0180457 -0.0220044 -0.000206555 -0.0184169 -0.0154739 -0.000717304 -0.00429875 -0.0021373 0.0386901 -0.0193003 -0.0366615 -0.00529772 -0.00871134 -0.0181681 -0.000523176 0.0104032 -0.000277645 0.0498368 -0.0234242
internal_weight=480.084 230.286 249.797 222.122 213.271 191.841 172.248 105.285 66.9625 19.5931 21.4299 91.7026 75.0487 16.6539 69.0735 63.1342 22.1051 158.095 138.185 9.92825 19.9099 12.1796 128.256 105.351 48.8884 56.463 22.905 17.1812 12.4344 41.0292
internal_count=1939 934 1005 901 865 777 698 424 274 79 88 370 303 67 279 255 89 635 555 40 80 49 515 423 196 227 92 69 51 166
is_linear=0
shrinkage=0.05


Tree=12
num_leaves=30
num_cat=0
split_feature=1 3 5 5 5 5 5 1 1 1 1 1 3 0 3 0 1 4 1 0 3 1 4 4 4 4 3 1 1
split_gain=15.0828 7.60974 4.08078 3.73751 3.73128 6.80019 3.67358 4.8821 3.47011 2.9837 4.24281 2.8612 3.34937 3.24162 2.88837 4.55276 2.62147 2.36079 1.99467 1.95912 1.92009 2.03115 1.88365 1.84974 5.65333 3.38652 2.42767 1.8788 0.705431
threshold=0.0042284999508410701 -2.3666666746139522 -0.65000000596046437 4.5198411941528329 2.121428489685059 1.8333333134651186 -0.062500000931322561 0.019172166474163536 -0.0056046012323349706 0.11876300349831583 0.091725099831819548 -0.24948107451200482 0.72499999403953563 1.0000000180025095e-35 -2.3666666746139522 1.0000000180025095e-35 0.098099362105131163 -1.571428596973419 -1.0000000180025095e-35 1.5000000000000002 2.1166666746139531 0.26726190745830541 1.6500000357627871 1.0285714268684389 0.77500000596046459 0.35000000894069677 1.1214286088943484 -0.061042185872793191 0.078753270208835616
decision_type=2 2 2 2 2 2 2 2 2 2 2 2 2 2 2 2 2 2 2 2 2 2 2 2 2 2 2 2 2
left_child=2 -2 8 4 5 6 7 -3 11 10 17 13 14 22 15 -13 -8 -6 23 -16 21 -11 -1 24 25 26 -4 -25 -7
right_child=1 3 18 -5 9 28 16 -9 -10 20 -12 12 -14 -15 19 -17 -18 -19 -20 -21 -22 -23 -24 27 -26 -27 -28 -29 -30
leaf_value=-0.0043547376852740068 -0.038545808064395157 0.055584851283224136 -0.0010853321927336858 -0.0211886466161606 0.039998015288884053 -0.044628334434045361 -0.0041539766961632653 0.014548210596622483 0.024472299914789067 0.03240132088747593 -0.026847131277761567 0.026291450455364906 0.017932130919376624 -0.058798202768094623 -0.023352306032213173 -0.02398175575902313 0.013256679358395685 0.0075334778999845619 -0.026157714847323522 -0.0055699904757014196 0.013048876215372299 0.067344651291650001 -0.039698748258456679 0.0020239852268364041 0.046970905993572204 -0.029471093938202544 0.024461456005172674 -0.037283511109458399 -0.018563199513290579
leaf_weight=9.0953396707773226 8.1635518521070463 8.3921257555484754 62.788212046027184 8.8717540353536588 9.9078239649534261 4.9702260047197324 45.229439809918404 53.150662839412689 5.4779047220945349 12.797963723540311 5.6228820830583564 9.6756859123706835 8.2116829603910428 7.6317165940999976 64.79764886200428 8.4244452863931638 41.418019235134125 12.879133060574532 7.7187594622373572 20.354560852050781 6.9595228880643836 6.1604929268360129 6.4380677193403235 5.9417341500520706 6.6713657826185218 9.2024389356374723 10.916230142116545 6.2247357666492444 5.4337026476860046
leaf_count=37 33 34 252 36 40 20 182 215 22 53 23 39 33 31 261 34 169 52 31 82 29 26 26 24 27 37 44 25 22
internal_value=-0.000374192 0.0088638 -0.00888619 0.0106088 0.0119337 0.00805973 0.010803 0.0201441 -0.0145375 0.0232426 0.0120507 -0.0161248 -0.0128018 -0.0321139 -0.0152461 0.00289251 0.00416842 0.0216491 -0.00165283 -0.0191017 0.0355105 0.0437561 -0.0190036 0.000206212 0.00269078 -0.000872366 0.00269836 -0.0180869 -0.0310152
internal_weight=479.528 229.957 249.571 221.794 212.922 158.594 148.19 61.5428 140.107 54.3278 28.4098 134.629 111.464 23.1651 103.252 18.1001 86.6475 22.787 109.463 85.1522 25.918 18.9585 15.5334 101.745 89.5782 82.9069 73.7044 12.1665 10.4039
internal_count=1939 934 1005 901 865 642 600 249 565 223 115 543 449 94 416 73 351 92 440 343 108 79 63 409 360 333 296 49 42
is_linear=0
shrinkage=0.05


Tree=13
num_leaves=31
num_cat=0
split_feature=1 3 3 1 3 3 1 1 1 4 2 4 1 3 3 3 1 3 1 1 1 2 5 4 3 1 1 3 1 1
split_gain=13.6638 5.51138 5.02056 3.86883 3.787 3.46222 3.83078 3.62917 3.5941 3.33736 2.98346 3.08958 2.94004 2.90778 5.55696 6.65923 5.29186 3.13917 2.66091 2.54348 2.25706 2.01829 1.82164 1.75488 1.41963 2.81583 4.47092 1.30512 1.93913 0.356422
threshold=-0.019991183653473851 -2.3666666746139522 0.18928571790456775 -0.16774013638496396 -1.0000000180025095e-35 -1.8874999880790708 0.10960575193166734 0.20474186539649966 0.26726190745830541 -2.8500000238418575 -0.042857143096625798 -0.96428570151329029 0.35486111044883734 -0.46428571641445154 -0.70714285969734181 -1.1500000357627866 -0.076940286904573427 -1.3666666746139524 -0.14019770920276639 0.035732043907046325 0.1922762989997864 -0.21111111342906949 3.2749999761581425 -1.2499999999999998 0.38750000298023229 -0.097362596541643129 -0.071382608264684663 -0.38750000298023218 -0.075001191347837434 -0.15431372821331021
decision_type=2 2 2 2 2 2 2 2 2 2 2 2 2 2 2 2 2 2 2 2 2 2 2 2 2 2 2 2 2 2
left_child=2 -2 4 -4 13 -3 9 20 23 -7 19 -12 -10 14 15 17 29 -1 -5 -11 22 -17 -8 -9 -20 -26 -27 -15 -29 -16
right_child=1 5 3 18 -6 6 7 8 12 10 11 -13 -14 27 16 21 -18 -19 24 -21 -22 -23 -24 -25 25 26 -28 28 -30 -31
leaf_value=-0.01432365527704365 -0.032851383549367508 0.039845807717683451 -0.03275860045654979 0.038727616282336848 -0.044932331323698338 -0.03545591817693218 0.023341910232941247 -0.040715314559568977 0.031329027838380742 0.022607159595416648 0.010437586188043503 -0.0066144606251191534 -0.01470646478207739 0.022347659033185818 -0.075569904752256681 -0.0076551178082683545 -0.0065180551575791737 -0.041354892263228554 0.021900156807173821 -0.0007773625594828783 0.050313474362228439 0.022797131021781075 -0.0050095345153550047 -0.0029765857055758867 -0.027923102114919114 0.047702321527656827 -0.0026048572923916173 0.010387664247173949 -0.02472790688119024 -0.05660607292808182
leaf_weight=59.358502224087715 8.4049028158187848 8.4085005819797498 7.1755448430776587 5.6654609590768805 9.9515719413757306 5.4871106296777716 42.829395532608032 5.1896240413188934 11.244340702891352 32.629570335149765 42.160478815436363 71.804629117250443 5.0150897353887549 6.4702812582254436 4.9487686306238166 8.6484424620866793 5.9803194254636756 13.113193511962889 7.9700269997119895 18.066526919603348 6.8022733032703391 14.671506956219671 6.5294237285852423 7.5793599039316195 7.9404864013195029 5.2228637784719423 28.605569541454319 9.4500129371881521 6.7321093529462788 4.9621346443891516
leaf_count=240 34 34 29 23 40 22 176 21 47 132 170 289 21 26 20 35 24 53 32 73 28 59 27 31 32 21 115 38 27 20
internal_value=-0.000355194 0.00700721 -0.0100411 0.00178652 -0.0151709 0.0082774 0.00723783 0.015893 0.00153857 0.00290436 0.00418266 -0.000306192 0.0171298 -0.0129662 -0.0162792 -0.0117365 -0.0436622 -0.0192147 0.00626053 0.0142736 0.0233125 0.0115036 0.0195914 -0.0183145 0.0025624 -0.00112748 0.0051622 0.00336778 -0.00422117 -0.0660752
internal_weight=479.018 272.151 206.867 62.58 144.287 263.746 255.338 85.1895 29.0284 170.148 164.661 113.965 16.2594 134.335 111.683 95.7916 15.8912 72.4717 55.4044 50.6961 56.1611 23.3199 49.3588 12.769 49.7389 41.7689 33.8284 22.6524 16.1821 9.9109
internal_count=1939 1105 834 252 582 1071 1037 351 120 686 664 459 68 542 451 387 64 293 223 205 231 94 203 52 200 168 136 91 65 40
is_linear=0
shrinkage=0.05


Tree=14
num_leaves=31
num_cat=0
split_feature=1 1 1 4 5 2 5 5 0 2 5 2 0 2 1 0 5 2 0 5 1 2 1 5 1 1 1 5 5 1
split_gain=12.6013 3.59079 5.82966 4.57285 3.40942 4.32575 3.3727 3.26113 3.04333 3.55582 3.01766 5.07901 5.0124 2.96572 2.95399 2.95023 2.85506 2.7853 2.53784 2.52734 2.45231 2.56384 3.89961 2.95571 2.36233 5.83904 2.53669 2.11744 1.86406 1.84363
threshold=0.0042284999508410701 0.019172166474163536 0.044189035892486579 -1.0000000180025095e-35 -0.65000000596046437 -0.097619049251079545 0.55000001192092907 2.121428489685059 1.5000000000000002 0.17261905223131183 4.5198411941528329 0.27916666865348821 -2.4999999999999996 0.060119049623608596 -0.24948107451200482 1.0000000180025095e-35 0.050000000745058289 0.060119049623608596 1.0000000180025095e-35 -0.28333334624767298 -0.0056046012323349706 -0.45555555820465082 -0.016904877498745915 -1.6833333373069761 0.068021144717931761 0.074988026171922698 0.054117247462272651 -1.1500000357627866 2.3166666030883794 -0.13904565572738645
decision_type=2 2 2 2 2 2 2 2 2 2 2 2 2 2 2 2 2 2 2 2 2 2 2 2 2 2 2 2 2 2
left_child=4 6 3 7 14 29 -2 16 13 17 11 24 -13 18 15 -1 -3 -10 -7 27 21 -16 23 -23 26 -26 -4 -5 -14 -6
right_child=1 2 10 19 5 8 -8 -9 9 -11 -12 12 28 -15 20 -17 -18 -19 -20 -21 -22 22 -24 -25 25 -27 -28 -29 -30 -31
leaf_value=-0.017154670004253688 0.043575296308064768 -0.020787492699761177 0.0038646236948249426 0.0078915587989874421 0.039141823827126117 -0.032004525782657951 0.0026185154599253002 0.00049115045656700099 -0.017728429295818648 0.00387918507827948 -0.019467000498183097 -0.017800206295218526 0.020268591740071062 0.0063625158601524033 0.015242697316032226 -0.055260879462395641 -0.068747449075332534 -0.061736116160523602 0.0080139379816585136 0.028263618037890448 0.022622893368755972 -0.018176297319791319 -0.054842168551847197 -0.00015663358577025686 -0.033542398481434192 0.007360284581217927 0.036526318551893526 -0.031353993980715721 0.044550892586769052 0.0082171387786046744
leaf_weight=15.484385877847673 12.992070913314821 6.4448730796575564 11.424051359295847 8.6949324309825897 5.9004947692155829 11.72605834901333 8.1983616352081281 6.2100998014211646 7.7281627655029315 7.6915582567453376 8.135795593261717 5.2347555160522452 13.145486339926718 37.317055806517601 8.1966192573308927 7.5588166564702979 5.9846270531415939 6.7235172986984253 5.9831501692533484 7.4482149481773368 5.4688381552696219 61.484977513551712 5.482926979660987 36.128395333886147 9.6879942715167982 87.801501020789146 12.394264727830885 5.6834983974695215 19.81993080675602 26.307429015636444
leaf_count=63 53 26 46 35 24 47 33 25 31 31 33 22 54 150 33 31 24 27 24 30 22 249 22 145 39 358 50 23 83 106
internal_value=-0.000337372 0.00812126 0.00612468 -0.0109084 -0.0081211 -0.00150886 0.0277295 -0.0290967 -0.00793271 -0.0235853 0.0102362 0.0117512 0.0276506 -0.00163391 -0.0132942 -0.0296546 -0.0438795 -0.0382026 -0.0184841 0.00462415 -0.0100655 -0.0116718 -0.0138116 -0.0115069 0.00674443 0.00329559 0.0208607 -0.0076214 0.0348679 0.0138825
internal_weight=478.483 229.3 208.11 40.4662 249.182 109.377 21.1904 18.6396 77.1695 22.1432 167.644 159.508 38.2002 55.0263 139.805 23.0432 12.4295 14.4517 17.7092 21.8266 116.762 111.293 103.096 97.6134 121.308 97.4895 23.8183 14.3784 32.9654 32.2079
internal_count=1939 934 848 163 1005 440 86 75 310 89 685 652 159 221 565 94 50 58 71 88 471 449 416 394 493 397 96 58 137 130
is_linear=0
shrinkage=0.05


Tree=15
num_leaves=31
num_cat=0
split_feature=1 1 1 3 3 5 5 5 4 1 1 4 1 1 4 4 2 2 5 1 3 4 4 4 3 3 1 2 1 4
split_gain=12.535 2.58622 2.75965 2.58319 4.96431 2.8904 8.66749 4.69428 4.91456 3.4298 3.21382 3.0608 3.33225 3.01424 2.71649 4.93572 2.27674 2.13588 3.54871 2.02928 1.81407 1.80277 1.79325 1.7401 1.70993 1.61743 2.74725 6.90298 3.54032 2.52223
threshold=-0.019991183653473851 -0.24948107451200482 -0.29788732528686518 2.7500000000000004 1.5416666865348818 -0.062500000931322561 -0.38750000298023218 2.3166666030883794 -2.2499999999999996 0.14002902805805209 0.17200817167758944 1.8499999642372134 0.042907239869236953 0.13613134622573855 -1.0142857432365415 1.0285714268684389 0.17261905223131183 0.27916666865348821 2.3166666030883794 0.11501089110970499 -1.9750000238418577 -1.8874999880790708 -2.4500000476837154 -1.571428596973419 1.0388888716697695 1.3874999880790713 -0.038890235126018517 -0.077380955219268785 -0.046171549707651131 -1.3666666746139524
decision_type=2 2 2 2 2 2 2 2 2 2 2 2 2 2 2 2 2 2 2 2 2 2 2 2 2 2 2 2 2 2
left_child=1 2 20 4 5 6 11 10 9 -9 13 12 -2 -7 23 17 -12 18 -16 -5 -1 22 -3 -6 -10 26 28 -28 29 -23
right_child=3 21 -4 19 14 7 -8 8 24 -11 16 -13 -14 -15 15 -17 -18 -19 -20 -21 -22 25 -24 -25 -26 -27 27 -29 -30 -31
leaf_value=-0.036577281449224668 -0.010904673446607836 -0.007923245920564162 -0.044727731980855751 -0.031277348399904287 0.01969709210095591 -0.0054668850379739429 0.04820415314870645 -0.028700730912069566 0.0627839833048736 0.021488403716267562 -0.050469539290665701 0.026774551988555717 0.012353041479782499 0.019763885077555776 0.053479678149496106 -0.0079528588765570736 -0.011524125463459392 0.063359800842784073 -0.0012185066142770212 0.0036777638321798083 -0.00034562298623802253 0.02498296702318567 -0.045876333597795818 -0.017018990955913693 0.023682222470623765 0.0072640120826918259 0.0021634007081220131 -0.059184684294012184 0.029757908571163762 -0.0096878074018242489
leaf_weight=5.0834871977567664 33.695202469825745 6.223792776465416 10.79207608103752 8.194830924272539 7.864798977971077 78.796375542879105 13.223299190402029 6.2208925187587756 5.640945151448248 7.5174730867147446 5.9374079704284695 12.578298494219778 28.3657146692276 13.930090829730032 7.0696572363376671 5.9109329283237448 10.198608458042143 8.3587016016244871 5.107580378651619 8.4162276536226255 10.782743543386461 5.4834869354963294 6.2255874425172788 5.4724157005548459 5.5435761064291 17.371040999889374 9.6594779342412966 8.7290965616703016 6.4624771028757086 120.9316852837801
leaf_count=21 136 25 44 33 33 318 54 25 23 31 24 51 115 57 29 24 42 36 21 34 44 22 25 23 23 70 39 35 26 488
internal_value=-0.00139004 -0.0106818 -0.0252219 0.00555249 0.00676731 0.00384825 0.0108939 -0.00077891 0.0187956 -0.00123782 -0.00526027 0.00428389 -0.000274445 -0.00167652 0.0230302 0.0323084 -0.0258545 0.0438969 0.0305373 -0.0135668 -0.0119541 -0.00854136 -0.0269025 0.00463205 0.0434033 -0.00718588 -0.00884527 -0.0269587 -0.00633861 -0.0081839
internal_weight=485.788 207.745 26.6583 278.043 261.432 221.648 87.8625 133.785 24.9229 13.7384 108.862 74.6392 62.0609 92.7265 39.7841 26.4469 16.136 20.5359 12.1772 16.6111 15.8662 181.087 12.4494 13.3372 11.1845 168.637 151.266 18.3886 132.878 126.415
internal_count=1971 839 109 1132 1065 899 356 543 102 56 441 302 251 375 166 110 66 86 50 67 65 730 50 56 46 680 610 74 536 510
is_linear=0
shrinkage=0.05


Tree=16
num_leaves=31
num_cat=0
split_feature=1 0 2 3 5 1 3 1 3 1 1 5 2 1 0 0 3 1 1 1 5 3 3 3 3 3 3 2 3 1
split_gain=11.3266 3.49944 3.38091 3.18722 4.20762 2.95312 4.22264 4.53236 3.97796 3.72128 4.21164 2.82517 2.43419 2.35106 3.97513 3.17069 2.61381 2.21741 4.55709 2.14533 4.67374 3.22092 2.08791 2.07241 2.40502 1.88786 4.10993 3.59329 2.37587 1.11827
threshold=-0.019991183653473851 2.5000000000000004 -0.21111111342906949 0.42916667461395269 2.7500000000000004 0.05893597565591336 -0.55000001192092884 0.088663470000028624 1.0000000180025095e-35 0.166800431907177 0.10676319524645807 0.27500000596046453 -1.0000000180025095e-35 -0.24948107451200482 1.0000000180025095e-35 -3.4999999999999996 -1.8874999880790708 -0.063963461667299257 -0.066885799169540391 -0.058803426101803773 -2.4583333730697627 -1.1500000357627866 -1.3666666746139524 -2.783333301544189 1.3874999880790713 -1.0976190567016599 -0.70714285969734181 -0.11805555596947669 -1.3666666746139524 -0.29788732528686518
decision_type=2 2 2 2 2 2 2 2 2 2 2 2 2 2 2 2 2 2 2 2 2 2 2 2 2 2 2 2 2 2
left_child=13 2 22 11 -5 25 9 8 -8 10 -7 -3 -9 14 16 -15 -1 18 23 -19 -21 -22 -2 -17 -25 28 -27 -28 -4 -18
right_child=1 3 5 4 -6 6 7 12 -10 -11 -12 -13 -14 15 -16 17 29 19 -20 20 21 -23 -24 24 -26 26 27 -29 -30 -31
leaf_value=-0.040460755511862838 0.012038249023592502 -0.0070743729382804045 0.0026335300405870361 0.018559675703537042 -0.031524953438950135 -0.015639567393547955 0.069085927549298709 -0.024545883152909027 0.022439519602021882 -0.04708240823940673 0.038822262500672229 -0.046935422324863411 0.011928612627116031 -0.036022790094710738 -0.054222536620502595 0.021415567379019489 0.012410757953703369 -0.036575519179252163 0.043484712875485804 0.031668495193546246 -0.042876605631627068 -0.0093618348554345369 0.052108207708360166 -0.0088520521060621252 0.019916718350340295 -0.044197440778727587 0.030145684861197453 -0.0040192488356778832 0.04421567656041131 -0.017120998279307884
leaf_weight=5.5518452525138899 6.4139819145202637 10.566663742065431 11.160363733768465 15.190105214715006 5.7925117760896674 10.647218957543375 6.1804692000150707 4.8698951900005332 17.545642748475075 4.9543880820274344 5.3253024965524665 7.6730158776044837 75.334954619407654 9.6370554715394956 7.7352068573236457 7.1888563483953467 7.8768004477024114 8.9524197578430158 5.2098185718059531 5.9516163915395728 8.6862413734197599 41.036847859621048 6.5924006551504117 86.436355113983154 7.9312722235918036 5.7104906737804404 8.6453012079000455 70.097100526094437 4.9627022296190253 5.4054216146469081
leaf_count=23 26 43 45 62 24 43 25 20 71 20 22 31 312 39 32 29 32 36 21 24 35 165 27 349 32 23 35 283 20 22
internal_value=-0.00132097 0.00528423 0.00756083 -0.00855569 0.00473319 0.00613073 0.0112669 0.015393 0.0345905 -0.00922459 0.00251822 -0.023843 0.00971395 -0.0101553 -0.0240444 -0.00811689 -0.0116502 -0.0065478 -0.00212308 -0.0138576 -0.0102046 -0.0152166 0.0323481 -0.00446275 -0.00643414 -0.000245465 -0.00323859 -0.000268206 0.0154326 0.000392318
internal_weight=485.262 277.663 238.44 39.2223 20.9826 225.434 124.858 103.931 23.7261 20.9269 15.9725 18.2397 80.2048 207.6 26.5693 181.03 18.8341 171.393 106.766 64.6271 55.6747 49.7231 13.0064 101.556 94.3676 100.576 84.4529 78.7424 16.1231 13.2822
internal_count=1971 1132 972 160 86 919 513 428 96 85 65 74 332 839 109 730 77 691 431 260 224 200 53 410 381 406 341 318 65 54
is_linear=0
shrinkage=0.05


Tree=17
num_leaves=31
num_cat=0
split_feature=1 0 2 5 3 5 1 1 3 5 1 3 3 3 5 0 1 0 0 3 1 1 2 1 3 3 1 3 3 3
split_gain=10.2371 2.83072 3.11214 2.95975 2.54789 3.7926 2.40412 5.04604 6.28876 2.71308 2.84478 2.415 2.18944 2.2616 2.176 2.94607 2.12255 3.64467 2.85554 2.38196 2.08806 4.11418 2.36515 4.20169 4.15101 3.87214 3.68307 1.94334 1.91156 1.86972
threshold=-0.020846914499998089 2.5000000000000004 -0.21111111342906949 2.5499999523162846 0.42916667461395269 2.7500000000000004 0.05893597565591336 0.068021144717931761 1.5416666865348818 0.45000000298023229 0.021777584217488769 -1.0976190567016599 -0.70714285969734181 -0.17500000447034833 4.2500000000000009 -2.4999999999999996 -0.24948107451200482 1.0000000180025095e-35 -3.4999999999999996 -1.8874999880790708 -0.063963461667299257 -0.066885799169540391 0.060119049623608596 -0.059652497991919511 1.4333333373069765 -1.1500000357627866 -0.049437919631600373 0.94999998807907116 -1.3666666746139524 -2.783333301544189
decision_type=2 2 2 2 2 2 2 2 2 2 2 2 2 2 2 2 2 2 2 2 2 2 2 2 2 2 2 2 2 2
left_child=16 2 28 6 12 -6 9 -8 -9 11 -11 -4 -3 -14 15 -5 17 19 -18 -1 21 29 23 -22 26 -25 -24 -17 -2 -20
right_child=1 4 3 14 5 -7 7 8 -10 10 -12 -13 13 -15 -16 27 18 -19 20 -21 22 -23 24 25 -26 -27 -28 -29 -30 -31
leaf_value=-0.038730825377085137 0.011441366287025584 0.0040781288530851402 0.021899256266368336 -0.0083533474850992825 0.017668830271627453 -0.029826785415490914 0.044576375817169556 -0.00024262741343395933 0.042675623722765683 -0.0019098164808642676 -0.03009818450755607 -0.0018871421413020448 -0.056262545994571769 -0.013628410637295169 -0.0042635628953477146 0.008088247565616026 -0.034267918094124467 -0.052012438259720212 0.020329567386957063 0.00037238120950308824 -0.04583670131426041 0.041324821723409025 -0.0076030238490215479 -0.023353503601813465 0.008263970065776248 0.010994075607087476 -0.060961038185081418 0.038113959713851023 0.049850621746852813 -0.0061145762595620351
leaf_weight=5.5108822286129042 6.4112320989370346 5.9347842037677792 14.361192703247069 6.0306968241929999 15.158983469009401 5.815568581223487 8.840479299426077 72.381926149129868 9.6763944625854474 22.368437990546227 14.921049103140829 41.526775375008583 5.6445254236459741 6.9290160685777638 9.0659941583871824 7.3169917911291149 9.6243512779474241 7.6625446975231162 7.1940936893224707 13.277728632092476 5.9571983963251105 5.20803578197956 4.9833626747131357 12.369599297642706 5.7058346867561331 24.373667165637016 9.2132284194231033 20.451042026281357 6.5475398600101453 94.334634155035019
leaf_count=23 26 24 58 25 62 24 36 295 41 90 60 168 23 28 37 30 39 32 29 54 24 21 20 50 23 98 37 86 27 381
internal_value=-0.00125581 0.00497429 0.00701606 0.00565521 -0.00743163 0.00449982 0.00289976 0.00868505 0.00481833 -0.00274405 -0.0131891 0.0042251 -0.020953 -0.0327678 0.0174881 0.0233226 -0.00972929 -0.0229496 -0.0077753 -0.011097 -0.0062696 -0.00201751 -0.0135193 -0.00688437 -0.0277546 -0.000569017 -0.042231 0.0302021 0.030848 -0.0042408
internal_weight=484.798 279.383 239.9 226.941 39.4829 20.9746 184.076 90.8988 82.0583 93.1775 37.2895 55.888 18.5083 12.5735 42.8647 33.7987 205.415 26.4512 178.964 18.7886 169.34 106.737 62.6029 42.7005 19.9024 36.7433 14.1966 27.768 12.9588 101.529
internal_count=1971 1140 979 926 161 86 748 372 336 376 150 226 75 51 178 141 831 109 722 77 683 431 252 172 80 148 57 116 53 410
is_linear=0
shrinkage=0.05


Tree=18
num_leaves=31
num_cat=0
split_feature=1 3 5 5 1 3 3 3 4 5 3 1 5 1 1 1 4 2 4 5 4 1 3 5 3 3 3 1 5 4
split_gain=9.41203 2.63781 3.62133 3.51346 3.29749 3.2151 3.04935 4.01343 4.50736 2.73127 2.59932 2.36292 3.03779 3.0107 2.2987 2.39893 2.36298 3.6305 3.44722 4.22974 3.58194 3.4806 2.98182 2.07625 2.42329 2.109 2.04727 3.79872 2.81833 5.08456
threshold=0.0042284999508410701 -0.25000000745058054 0.68333333730697643 0.81666666269302379 0.17388834059238437 0.10952381044626237 2.7500000000000004 1.5416666865348818 -0.63333335518836964 4.0499999523162851 3.1055555343627934 0.021130894310772422 0.31666667759418493 0.074988026171922698 -0.24948107451200482 -0.29788732528686518 2.2333333492279057 -0.45555555820465082 0.94999998807907116 -3.1499999761581416 0.24444445222616198 -0.17500507831573484 1.2111111283302309 -3.9500000476837154 -1.0000000180025095e-35 0.72499999403953563 -0.81111112236976612 0.035732043907046325 -1.4583333134651182 0.63333335518836986
decision_type=2 2 2 2 2 2 2 2 2 2 2 2 2 2 2 2 2 2 2 2 2 2 2 2 2 2 2 2 2 2
left_child=14 4 5 -4 26 -3 7 8 -5 -9 -8 -7 13 -13 15 -1 17 -16 20 -20 21 -19 -21 -18 -25 -26 28 -28 29 -2
right_child=1 2 3 6 -6 11 10 9 -10 -11 -12 12 -14 -15 16 -17 23 18 19 22 -22 -23 -24 24 25 -27 27 -29 -30 -31
leaf_value=-0.0094842990330851334 -0.03039996975951785 0.042772784608488108 -0.033705692311187793 0.010830238155314467 -0.040342500793482672 0.04550951512429751 -0.041697646424974061 0.030376646049969265 -0.019269651045470529 -0.010546326783888841 0.0018576616837874993 -0.018693166001653844 0.037322058817292648 0.018741836412982354 0.03322875784773973 -0.040242107754180585 -0.017572160117019113 0.028961831980153986 -0.052767092844504287 -0.0078340861713597568 0.007831621912352215 -0.012029110378189241 -0.03986707821190863 0.045800473062653703 -0.018000596654488419 0.027696561174055018 -0.039526326506773637 0.0013757032709498232 0.022100631431159715 0.02707386758837434
leaf_weight=15.694434106349947 9.190479710698126 12.765777319669722 5.6199120432138434 46.241946533322334 5.186928614974021 4.8400367349386206 5.4734737724065772 27.708652272820473 17.013524457812309 4.7807662189006797 9.1547661721706373 11.615877479314809 6.6231312602758399 9.9902632683515531 5.2197780758142462 10.635205909609793 5.1991204917430904 5.4713453054428092 8.1766419857740384 38.72668232023716 39.867905840277672 96.813692420721054 8.9423835724592191 5.449146360158923 5.1436028927564568 4.9592456519603729 7.4059895426034954 24.309590637683868 19.413012981414795 6.6200591027736655
leaf_count=65 37 52 23 189 21 20 22 118 69 20 37 47 27 41 21 44 21 22 33 157 161 390 36 22 21 20 30 99 79 27
internal_value=-0.00119387 0.0060162 0.00956063 0.00485887 -0.00193636 0.0214592 0.00682248 0.010071 0.00273441 0.0243549 -0.0144395 0.0132315 0.00769723 -0.00138394 -0.00793311 -0.0219082 -0.00629022 -0.00793136 -0.00901645 -0.0195423 -0.00488131 -0.00983646 -0.0138433 0.00978163 0.0189262 0.00443104 0.00103962 -0.00817544 0.00933694 -0.006335
internal_weight=484.253 233.954 161.828 115.993 72.1261 45.8351 110.373 95.7449 63.2555 32.4894 14.6282 33.0693 28.2293 21.6061 250.299 26.3296 223.97 203.218 197.999 55.8457 142.153 102.285 47.6691 20.7511 15.552 10.1028 66.9391 31.7156 35.2236 15.8105
internal_count=1971 958 665 478 293 187 455 396 258 138 59 135 115 88 1013 109 904 820 799 226 573 412 193 84 63 41 272 129 143 64
is_linear=0
shrinkage=0.05


Tree=19
num_leaves=31
num_cat=0
split_feature=1 0 3 5 1 1 1 4 0 4 4 4 0 4 0 4 3 3 4 1 0 0 3 4 4 1 3 3 1 5
split_gain=8.53116 2.56562 2.33372 3.47917 2.32815 3.02097 3.3541 2.9415 3.1454 4.08773 2.89229 5.60589 2.6671 2.52711 2.26569 2.07501 2.01073 1.8942 1.85999 1.73648 3.3373 2.55858 2.20622 1.94982 1.66762 1.42511 3.79437 2.72467 1.69973 3.97714
threshold=-0.020846914499998089 2.5000000000000004 0.42916667461395269 2.7500000000000004 0.05893597565591336 0.20921104401350024 0.24604278802871707 0.24444445222616198 -2.4999999999999996 -0.96428570151329029 1.7250000238418581 1.5249999761581423 1.0000000180025095e-35 0.12142857536673547 -2.4999999999999996 2.0499999523162846 -0.70714285969734181 -0.17500000447034833 0.89444443583488475 -0.24948107451200482 1.0000000180025095e-35 -3.4999999999999996 -1.8874999880790708 -1.8874999880790708 -1.1625000238418577 -0.063963461667299257 -2.783333301544189 1.3874999880790713 -0.058803426101803773 -2.4583333730697627
decision_type=2 2 2 2 2 2 2 2 2 2 2 2 2 2 2 2 2 2 2 2 2 2 2 2 2 2 2 2 2 2
left_child=19 4 16 -4 10 7 -7 8 -6 -10 11 12 -2 -14 -9 -12 -3 -18 -16 20 22 -21 -1 -23 -8 26 -25 -28 -27 -30
right_child=1 2 3 -5 5 6 24 14 9 -11 15 -13 13 -15 18 -17 17 -19 -20 21 -22 23 -24 25 -26 28 27 -29 29 -31
leaf_value=-0.03634320541190475 -0.0046611105520533835 0.0038137383606694692 0.016836185708483168 -0.028651332685409842 0.034062924066001705 -0.036099011887968928 0.021070806304275397 0.0058358110419397735 0.016595584970432047 -0.0084092384928770893 0.047894919532553003 -0.053644776023481902 0.0048505656621552562 0.038303301339551336 0.055975849476603029 0.0069051227335062935 -0.052941552757001201 -0.01394529115836202 0.023675232103693017 -0.032223391761575508 -0.048960314313946623 -0.025620929632629737 0.001454218986901617 0.035717428608315151 -0.0091212135210993351 -0.030945620311482569 -0.0057036505836253974 0.026333817882889039 0.031372962700987939 -0.012270781798096677
leaf_weight=5.4485066533088728 64.159296751022339 5.9308240413665798 15.111224174499513 5.8237762302160254 11.663625642657278 6.3020256310701397 9.2827578634023702 7.0518857389688518 38.291534572839737 28.517022162675858 5.205912768840788 4.9312599599361411 21.767144039273266 7.6224021762609473 8.6387791782617587 7.5874865651130676 5.6638150960206994 6.917097702622411 9.2067086547613126 9.5999859571456891 7.5431441664695731 11.439738944172857 13.2477667927742 6.6898993998765937 9.0152837485074961 8.6684346348047239 86.828060567378998 7.1856844872236243 5.9518476128578177 42.449735596776009
leaf_count=23 259 24 62 24 48 26 39 29 158 117 21 20 88 31 36 31 23 28 38 39 32 46 54 27 38 35 351 29 24 171
internal_value=-0.00113474 0.00456086 -0.00725376 0.0041823 0.00650887 0.0111082 -0.0046395 0.0148559 0.010105 0.00592235 0.00121939 -0.00168606 0.00105285 0.0135268 0.02983 0.0235848 -0.0201868 -0.0315011 0.0393116 -0.00887569 -0.0208871 -0.00711311 -0.00956078 -0.00568853 0.00619546 -0.00424329 -0.000665958 -0.00325495 -0.0105557 -0.006904
internal_weight=483.743 278.69 39.4467 20.935 239.243 127.97 24.6001 103.37 78.4722 66.8086 111.274 98.4801 93.5488 29.3895 24.8974 12.7934 18.5117 12.5809 17.8455 205.053 26.2394 178.813 18.6963 169.213 18.298 157.774 100.704 94.0137 57.07 48.4016
internal_count=1971 1140 161 86 979 529 103 426 323 275 450 398 378 119 103 52 75 51 74 831 109 722 77 683 77 637 407 380 230 195
is_linear=0
shrinkage=0.05


Tree=20
num_leaves=31
num_cat=0
split_feature=2 3 3 3 3 5 5 2 5 2 4 3 3 3 3 0 2 0 0 0 2 2 2 3 5 0 2 5 3 3
split_gain=6.38155 2.75348 6.56727 4.24053 2.69897 4.76145 3.04186 5.81507 5.48074 2.83434 2.77085 2.76157 2.11227 2.11059 3.02801 2.03498 3.97116 1.97013 2.06485 1.96022 4.1169 2.7255 1.82887 1.66822 2.1289 1.64514 1.62603 1.62114 1.5512 1.43785
threshold=0.25833334028720861 0.72499999403953563 0.38750000298023229 2.6499999761581425 0.18928571790456775 1.4499999880790713 -0.062500000931322561 -0.11805555596947669 2.121428489685059 -0.24444445222616193 1.1125000119209292 -0.17500000447034833 0.61428573727607738 -3.2499999999999996 -2.783333301544189 1.0000000180025095e-35 0.39047619700431829 1.0000000180025095e-35 2.5000000000000004 -1.0000000180025095e-35 -0.097619049251079545 0.17261905223131183 0.060119049623608596 2.2500000000000004 3.0499999523162846 -1.0000000180025095e-35 0.060119049623608596 0.81666666269302379 -1.0000000180025095e-35 0.50694444775581371
decision_type=2 2 2 2 2 2 2 2 2 2 2 2 2 2 2 2 2 2 2 2 2 2 2 2 2 2 2 2 2 2
left_child=4 2 28 15 5 13 7 9 10 29 17 -7 26 -1 -15 16 -3 27 -19 21 -21 -16 -10 24 -24 -14 -9 -8 -2 -6
right_child=1 3 -4 -5 6 11 8 12 22 -11 -12 -13 25 14 19 -17 -18 18 -20 20 -22 -23 23 -25 -26 -27 -28 -29 -30 -31
leaf_value=-0.02681965926344114 0.041421087038940818 0.01881296454927683 -0.042177546701432145 -0.0051556351403874955 0.02688847309889485 -0.016980648379705313 -0.025899653322381713 0.047067789703950286 -0.010719651481463401 -0.032372971127258891 -0.036341222237401015 -0.062774037747057948 -0.0063081562770259088 0.026135193459633218 -0.0007326227370030526 0.014683903264731386 0.061489967001769286 0.014466922218660673 -0.013199222228567281 -0.0021886802479301709 -0.021210707848816734 0.035053841804774104 0.017075394431180575 -0.00038034750033981825 0.052800514098785126 0.026874212654966385 0.013615424182512357 -0.0052170372308578197 0.0041376840513691884 -0.010128896925670049
leaf_weight=9.7476322054862958 4.9324690103530893 12.012610405683519 6.6694563031196585 12.599797680974005 4.9414812624454516 8.9214421957731229 15.279382914304732 12.337773084640505 5.403105407953265 7.9061136096715918 8.4026690870523435 5.2176943570375434 6.8961212784051886 8.5482210665941221 83.920212551951408 15.865838661789892 9.9790976196527463 17.939217641949657 10.807122111320494 92.790472313761711 41.018282473087311 5.6805963665246955 12.62688764929772 6.5719665437936774 6.2264450639486304 8.1496177762746793 5.1484162509441367 24.937448844313622 6.4223132282495508 5.5917391926050186
leaf_count=40 20 51 27 51 20 36 62 50 22 32 34 21 28 35 341 67 43 73 44 378 166 23 52 27 26 33 21 101 26 23
internal_value=-0.000163545 0.0139775 -0.00279732 0.0199697 -0.00249698 -0.00567734 0.00261517 0.0126857 -0.00212917 -0.00974621 -0.00923294 -0.0338796 0.0254003 -0.00402759 -0.00306979 0.028332 0.0381784 -0.00592999 0.0040659 -0.00418725 -0.00801977 0.0015362 0.0156982 0.0213122 0.0288739 0.0116653 0.0372185 -0.0130749 0.0203334 0.00723717
internal_weight=483.492 68.4816 18.0242 50.4573 415.01 255.845 159.166 50.9713 108.194 18.4393 77.3658 14.1391 32.5319 241.705 231.958 37.8575 21.9917 68.9632 28.7463 223.41 133.809 89.6008 30.8284 25.4253 18.8533 15.0457 17.4862 40.2168 11.3548 10.5332
internal_count=1973 285 73 212 1688 1040 648 207 441 75 314 57 132 983 943 161 94 280 117 908 544 364 127 105 78 61 71 163 46 43
is_linear=0
shrinkage=0.05


Tree=21
num_leaves=31
num_cat=0
split_feature=1 1 1 3 4 1 3 3 1 4 4 3 4 0 1 2 3 4 0 3 3 4 4 3 4 1 0 3 3 1
split_gain=11.3778 5.29956 4.48628 4.32097 4.54681 4.1889 4.10576 2.97022 3.95323 3.6873 6.70611 5.19217 4.90069 3.60251 3.03132 5.00618 2.93647 2.50478 2.49783 2.44446 6.88048 4.59157 3.40585 2.64892 2.27966 2.01715 1.98429 1.89479 1.85382 1.82556
threshold=0.0042284999508410701 -0.24948107451200482 0.015133260749280454 -2.3666666746139522 2.2333333492279057 -0.13332464545965192 -2.4791666269302364 0.82857143878936779 0.11501089110970499 -1.3666666746139524 -1.7749999761581419 0.50694444775581371 1.0000000180025095e-35 -1.0000000180025095e-35 0.20921104401350024 0.25833334028720861 1.0388888716697695 1.5249999761581423 1.0000000180025095e-35 0.18928571790456775 1.2111111283302309 -0.58750000596046437 0.77500000596046459 -0.87857142090797413 1.7250000238418581 -0.15431372821331021 -1.4999999999999998 1.4333333373069765 0.38750000298023229 -0.29788732528686518
decision_type=2 2 2 2 2 2 2 2 2 2 2 2 2 2 2 2 2 2 2 2 2 2 2 2 2 2 2 2 2 2
left_child=1 29 28 18 19 -6 -4 9 16 10 13 17 -13 -8 -10 -16 -9 -11 26 23 22 -22 -21 25 -25 -5 -3 -18 -2 -1
right_child=2 3 6 4 5 -7 7 8 14 11 -12 12 -14 -15 15 -17 27 -19 -20 20 21 -23 -24 24 -26 -27 -28 -29 -30 -31
leaf_value=-0.018611797618184055 0.051415972703733374 0.009479164386654592 -0.031861255917963301 0.013443649773871797 0.043571091783462162 -0.0028906075194798271 -0.016779788563102662 0.03586237425896259 0.035962986087423876 0.015348375592042759 -0.05146021992846516 -0.057075917107183363 0.0074998411620594233 0.02252980056978884 -0.033970448062814039 0.025530825570775573 -0.017164844529263524 -0.011324292367569211 -0.0039411624477933569 -0.0027664702766150464 0.012423529314449584 -0.036921435680819216 0.02484065446481161 -0.024504916870453086 0.0065006307351084666 -0.010819826725500508 0.051418294777111608 0.0064723052456131525 0.014642705413574434 -0.047798873354876779
leaf_weight=12.605574786663057 7.8392400294542295 5.1712637543678284 6.9079226702451697 10.523378744721411 7.8875443041324642 12.602049767971037 12.779094666242603 6.1796957403421393 25.825558394193649 69.504702672362328 8.1617047339677793 5.6696601659059507 6.0981194227933884 10.715687662363052 4.8846152573823955 12.794558495283125 12.606279522180555 10.078196227550505 8.128184109926222 26.064283236861229 6.4059365689754513 17.851935476064682 19.552465707063675 56.089128777384758 6.6289702504873267 46.0496926009655 6.2039479017257708 25.892073288559914 6.0894759744405746 9.3172676265239698
leaf_count=53 32 21 28 43 32 51 52 25 110 283 33 23 25 44 20 56 51 41 33 105 26 72 79 226 27 186 25 107 25 39
internal_value=-0.000154457 -0.00753075 0.00782761 -0.00528396 -0.00737805 0.014995 0.0060706 0.00731134 0.0143146 0.00229075 -0.0124149 0.00738681 -0.0236125 0.00114884 0.025043 0.0090911 0.00386801 0.0119706 0.0172268 -0.0098014 -0.00237489 -0.0238906 0.00906663 -0.0141515 -0.0212278 -0.00630648 0.0323524 -0.00126768 0.0353391 -0.0310164
internal_weight=483.108 251.082 232.027 229.159 209.655 20.4896 218.098 211.19 88.1828 123.007 31.6565 91.3507 11.7678 23.4948 43.5047 17.6792 44.678 79.5829 19.5034 189.166 69.8746 24.2579 45.6167 119.291 62.7181 56.5731 11.3752 38.4984 13.9287 21.9228
internal_count=1973 1018 955 926 847 83 898 870 369 501 129 372 48 96 186 76 183 324 79 764 282 98 184 482 253 229 46 158 57 92
is_linear=0
shrinkage=0.05


Tree=22
num_leaves=31
num_cat=0
split_feature=2 3 3 3 5 5 2 3 3 4 4 2 3 0 0 3 2 5 2 3 3 3 3 4 5 0 2 3 0 2
split_gain=5.45784 2.2933 7.89549 3.77757 2.27469 4.6497 4.26749 3.90709 3.64037 4.61146 4.63993 4.2895 3.08763 2.71818 6.2858 4.08986 2.54291 2.44957 3.20721 4.68575 4.08183 2.24672 3.71292 2.29043 3.93098 1.96718 1.78634 1.76998 1.52001 3.3991
threshold=0.25833334028720861 0.61428573727607738 0.38750000298023229 2.6499999761581425 -1.8499999642372129 -2.3666666746139522 -0.097619049251079545 0.25000000745058065 0.61428573727607738 -0.28333334624767298 1.0000000180025095e-35 0.060119049623608596 -1.3666666746139524 -1.0000000180025095e-35 1.0000000180025095e-35 1.0000000180025095e-35 0.060119049623608596 1.0249999761581423 -0.11805555596947669 -1.2928571105003355 -0.87857142090797413 -3.2499999999999996 -2.783333301544189 2.1499999761581425 -3.9500000476837154 1.0000000180025095e-35 -0.11805555596947669 -1.5500000119209287 1.0000000180025095e-35 0.39047619700431829
decision_type=2 2 2 2 2 2 2 2 2 2 2 2 2 2 2 2 2 2 2 2 2 2 2 2 2 2 2 2 2 2
left_child=4 2 -2 28 5 21 17 12 16 11 -11 -10 -8 15 -15 -14 -9 18 20 -20 27 -1 -23 -24 -25 -22 -7 -6 29 -3
right_child=1 3 -4 -5 6 26 7 8 9 10 -12 -13 13 14 -16 -17 -18 -19 19 -21 25 22 23 24 -26 -27 -28 -29 -30 -31
leaf_value=-0.026398288601568905 0.019639280649275011 0.01657847529379592 -0.056000973355051442 -0.0057099975601771552 0.003120059859418271 -0.032966079865909041 0.012292302509772691 0.035761383716006429 -0.023659180405248309 -0.055592341380260618 -0.0081237062775365802 0.01850289972418653 0.0027922622747843014 -0.055535458975261034 -0.012868241221038027 -0.044674352989091559 0.0051836151837718076 -0.020225377384319621 -0.014115762829796447 0.025479519633783723 0.0010638385824061941 0.043143156051960861 -0.010074880123989853 -0.019037055910000628 0.025092719791608105 -0.022837348974039325 -0.0059704856384604245 0.033156215983463029 0.014236075998960233 0.055468011548760611
leaf_weight=8.2470210045576078 11.334430530667307 12.414610877633097 4.9595265090465537 12.583661779761313 9.1117329001426715 21.540659621357921 11.125904038548468 11.109440669417383 7.649267002940177 5.9311021566390982 38.990099668502808 28.542682588100433 27.719659924507141 11.615557387471197 33.606162905693054 5.4264640361070624 17.524755150079727 7.4252730458974829 9.0789273679256421 42.213348969817162 20.208356916904449 4.9019574075937262 35.589577555656433 7.5981678366661098 15.025714159011839 14.998128071427343 8.5644508302211744 10.623209550976751 16.508824720978737 10.264221355319021
leaf_count=34 46 53 20 51 37 89 45 45 31 24 159 118 112 47 136 22 71 30 37 172 82 20 146 31 61 61 35 43 70 45
internal_value=-0.000146255 0.0129755 -0.00338397 0.0181243 -0.00230167 -0.00880713 -0.00019208 -0.00460235 0.0017204 -0.00369017 -0.0143912 0.00959183 -0.012356 -0.0158554 -0.0238277 -0.00497866 0.0170471 0.00753901 0.00947962 0.018471 0.00108544 -0.00185522 0.00135172 -0.00216739 0.0102719 -0.00911818 -0.0252862 0.0192884 0.0257778 0.0341795
internal_weight=482.433 68.0653 16.294 51.7713 414.368 101.468 312.9 199.241 109.747 81.1132 44.9212 36.1919 89.4937 78.3678 45.2217 33.1461 28.6342 113.659 106.234 51.2923 54.9414 71.3624 63.1154 58.2135 22.6239 35.2065 30.1051 19.7349 39.1877 22.6788
internal_count=1973 285 66 219 1688 416 1272 810 448 332 183 149 362 317 183 134 116 462 432 209 223 292 258 238 92 143 124 80 168 98
is_linear=0
shrinkage=0.05


Tree=23
num_leaves=31
num_cat=0
split_feature=1 1 1 3 4 1 3 5 2 5 1 5 2 3 3 3 1 1 4 3 3 5 5 3 5 4 1 1 4 3
split_gain=10.1102 4.71786 4.11916 3.93451 3.95879 3.82437 3.59261 2.55855 2.49535 3.23439 5.50732 3.31234 4.04664 3.2291 3.16362 4.48885 4.29407 2.33708 2.41853 2.05448 6.15223 6.97634 3.3809 2.28776 2.43233 2.128 1.95532 1.71527 2.54214 1.63004
threshold=0.0042284999508410701 -0.24948107451200482 0.015133260749280454 -2.3666666746139522 2.2333333492279057 -0.13332464545965192 -2.4791666269302364 0.050000000745058289 0.25833334028720861 -0.062500000931322561 0.029043651185929779 -0.38750000298023218 0.060119049623608596 -0.25000000745058054 2.6499999761581425 0.72499999403953563 0.13878107815980914 -0.10447052866220473 -0.63333335518836964 0.18928571790456775 1.2111111283302309 0.45000000298023229 -0.28333334624767298 -0.87857142090797413 -1.8499999642372129 1.7250000238418581 0.11501089110970499 -0.29788732528686518 0.94999998807907116 3.2250000238418584
decision_type=2 2 2 2 2 2 2 2 2 2 2 2 2 2 2 2 2 2 2 2 2 2 2 2 2 2 2 2 2 2
left_child=1 27 7 17 19 -6 -4 -2 9 11 -11 12 -8 -12 15 16 -10 -3 -19 23 22 -22 -21 24 -5 -25 -17 28 -1 -16
right_child=2 3 6 4 5 -7 8 -9 14 10 13 -13 -14 -15 29 26 -18 18 -20 20 21 -23 -24 25 -26 -27 -28 -29 -30 -31
leaf_value=-0.041348148137407337 0.055859694645442264 -0.0024050342587803256 -0.029815946672596228 -0.018246906191518222 0.041169245120889396 -0.0032164278904278976 0.013501605804513449 0.012880629113742909 0.028855448249698101 -0.041101541525644769 -0.018826389149347644 0.03866146903574471 -0.027825910162991165 0.0060645364160008229 -0.025577627401312104 0.017586171590613275 -0.02811637649728373 0.0066480138260471017 0.054557045603212742 0.025424747080158568 -0.075836613800720279 -0.0092166547634822335 -0.0025028850890378342 -0.022989630723541685 0.0028035810777566859 0.0069880165602128619 0.044001647625585762 -0.045723794805173412 0.003784845704009077 0.013351258169345646
leaf_weight=5.8576671034097689 6.7553717046976072 8.8794705122709292 6.8887814581394187 23.476672232151031 7.8980205208063152 12.587780192494391 40.829735040664673 7.1043887436389923 6.1705600470304471 8.1716521531343442 15.7616890668869 10.386642351746557 6.9282820820808402 75.177011027932167 5.9119964540004712 11.719828814268114 7.1280470937490463 4.9060413390398026 5.6888047009706479 17.774696484208107 4.9353177398443249 19.285936638712883 27.764112651348114 55.983226239681244 33.028686568140984 6.6199501305818549 17.415891289710999 9.2166572064161283 6.6756179481744766 4.9325608611106873
leaf_count=25 28 36 28 96 32 51 167 29 25 33 64 43 28 309 24 49 29 20 23 72 20 78 112 226 133 27 79 39 28 20
internal_value=-0.000138388 -0.00709645 0.0074002 -0.00498129 -0.00698092 0.0138959 0.00571548 0.033829 0.00687808 0.00370961 -0.00178275 0.0130716 0.0075062 0.00175039 0.01623 0.0223893 -0.00168142 0.0165153 0.0323723 -0.00924534 -0.00243123 -0.0227911 0.00839782 -0.0132363 -0.00594241 -0.0198197 0.033376 -0.0293499 -0.0173089 -0.00787113
internal_weight=481.861 250.579 231.282 228.829 209.354 20.4858 217.423 13.8598 210.534 157.255 99.1104 58.1447 47.758 90.9387 53.2789 42.4343 13.2986 19.4743 10.5948 188.869 69.7601 24.2213 45.5388 119.109 56.5054 62.6032 29.1357 21.7499 12.5333 10.8446
internal_count=1973 1018 955 926 847 83 898 57 870 644 406 238 195 373 226 182 54 79 43 764 282 98 184 482 229 253 128 92 53 44
is_linear=0
shrinkage=0.05


Tree=24
num_leaves=31
num_cat=0
split_feature=1 1 1 2 3 2 1 0 2 1 5 3 5 2 5 3 2 1 5 3 3 3 5 1 2 5 5 5 5 1
split_gain=9.14494 4.29945 3.74736 3.5673 3.24974 2.35803 3.79466 3.1349 2.69108 3.43178 2.35766 2.33549 5.48109 4.99589 3.67123 3.44871 2.95956 2.64746 2.51418 2.26423 2.20271 1.98118 3.07798 1.97213 2.4766 1.66723 4.20796 3.80715 1.65475 2.32125
threshold=0.0042284999508410701 -0.24948107451200482 0.015133260749280454 -0.45555555820465082 -2.4791666269302364 -0.097619049251079545 -0.16774013638496396 1.5000000000000002 0.17261905223131183 -0.05405954830348491 0.050000000745058289 0.82857143878936779 1.0249999761581423 0.11250000074505807 2.2277778387069707 2.6499999761581425 0.27916666865348821 0.030151515267789367 1.8333333134651186 3.2250000238418584 -0.17500000447034833 0.61428573727607738 0.55000001192092907 -0.05275974050164222 -0.11805555596947669 -1.8499999642372129 -1.0500000119209287 -2.3666666746139522 -1.7749999761581419 -0.29788732528686518
decision_type=2 2 2 2 2 2 2 2 2 2 2 2 2 2 2 2 2 2 2 2 2 2 2 2 2 2 2 2 2 2
left_child=1 28 10 -3 -4 7 -7 25 20 -10 -2 12 21 18 -15 16 17 -13 -14 -17 -8 22 -6 24 -9 27 -27 -5 29 -1
right_child=2 3 4 5 11 6 8 23 9 -11 -12 15 13 14 -16 19 -18 -19 -20 -21 -22 -23 -24 -25 -26 26 -28 -29 -30 -31
leaf_value=-0.021981368577481925 0.053638698043115246 0.027234408567880699 -0.02838519216889401 -0.0026106688286058654 0.0069119337362386016 0.026816377855097585 -0.031590715989650929 -0.0075351715053621829 0.023052105388933153 -0.013855918446572869 0.012255413216391314 -0.024688743728132144 -0.019861578508080312 -0.016981902409492055 0.025485983949347681 -0.022029078440151013 0.030935370407853175 0.014091536329594088 -0.061036416768585289 0.015852216962279706 -0.012395821525590808 -0.022003141637711492 0.035013470789347995 0.033729321807926184 0.028177035780930906 0.018998686324099491 -0.010301425394607187 -0.035117332936047414 -0.0052919329754153579 -0.061840050960566322
leaf_weight=10.047496125102043 6.6851230859756452 8.4046209901571256 6.874570131301879 26.800641447305679 70.186682865023613 5.9598843306303015 25.247082456946373 14.00816233456135 9.410803362727167 19.04250879585743 7.0937578976154327 4.9549216479063025 9.8893921226263029 11.341651603579523 9.2308245599269849 10.362633749842646 26.272159621119499 39.365184143185616 5.9308287352323523 6.3692017346620551 36.631400316953659 4.8742187023162833 11.315092891454695 8.1555977314710599 7.4294765293598202 18.796236470341682 35.205458357930183 13.566975995898245 5.8254743814468375 5.7391523718833932
leaf_count=43 28 34 28 109 287 24 102 57 38 77 29 20 40 46 38 42 117 164 24 26 148 20 46 33 30 76 142 56 24 25
internal_value=-0.000131071 -0.00675083 0.00704882 -0.00473606 0.00544308 -0.00595601 -0.0118259 -0.00139636 -0.0143755 -0.00164876 0.0323334 0.00655 0.00210393 -0.0141721 0.00207334 0.0128007 0.0176383 0.00975596 -0.0352976 -0.00760905 -0.0202275 0.0089615 0.0108133 0.0128026 0.00484133 -0.005849 -0.000103008 -0.0135357 -0.0280674 -0.0364718
internal_weight=481.017 250.271 230.746 228.659 216.967 220.254 96.2917 123.963 90.3318 28.4533 13.7789 210.093 122.769 36.3927 20.5725 87.3241 70.5923 44.3201 15.8202 16.7318 61.8785 86.376 81.5018 29.5932 21.4376 94.3693 54.0017 40.3676 21.6121 15.7866
internal_count=1973 1018 955 926 898 892 389 503 365 115 57 870 501 148 84 369 301 184 64 68 250 353 333 120 87 383 218 165 92 68
is_linear=0
shrinkage=0.05


Tree=25
num_leaves=20
num_cat=0
split_feature=1 1 1 5 5 4 3 1 2 3 1 3 3 5 5 5 3 4 2
split_gain=2.90439 3.59016 2.57031 1.69249 1.78434 3.9463 3.51038 3.34518 3.01338 1.76963 1.48175 3.6985 2.6886 2.55448 5.24692 2.27088 1.78252 1.48735 0.891704
threshold=0.13878107815980914 0.13018435239791873 0.11968353390693666 -4.5499999523162833 0.45000000298023229 -0.96428570151329029 -0.55000001192092884 0.10676319524645807 -0.16111111640930173 0.82857143878936779 0.35486111044883734 1.3874999880790713 1.916666626930237 0.97619047760963451 1.3499999642372134 0.27500000596046453 0.61428573727607738 -0.31666667759418482 0.20714285969734195
decision_type=2 2 2 2 2 2 2 2 2 2 2 2 2 2 2 2 2 2 2
left_child=1 2 3 -1 5 8 -7 9 -5 -6 11 13 -13 15 -15 -2 -16 -14 -18
right_child=10 -3 -4 4 7 6 -8 -9 -10 -11 -12 12 17 14 16 -17 18 -19 -20
leaf_value=-0.022320572632995507 0.0015384095350001671 -0.04306490239369426 0.030980889453976229 -0.0087315880980158335 -0.0086086488633077256 -0.0057848070232234018 0.0064974212488473201 -0.035323305965591731 0.032781952676024941 0.0031516679104407158 -0.015004917618687611 0.052213659201733868 0.0329176368857571 -0.050989107185534448 -0.011283092442200869 0.037813882345655803 0.0037670321506821573 -0.00036316930766821978 0.032617456384038152
leaf_weight=8.666990250349043 9.0688249766826647 4.8875757902860633 6.6051311045885077 5.8634341955184963 62.671966895461082 113.22666043043137 119.65261314809322 8.3207011967897397 17.177783280611038 65.33447290956974 5.2057203948497763 8.1491834223270434 6.532235711812973 5.1802054494619396 8.6242650151252764 8.2290576547384244 4.9996608346700651 6.9066277295351011 5.7683449536561966
leaf_count=36 37 20 28 24 253 464 488 35 70 266 23 37 29 21 35 34 21 29 26
internal_value=0.00111856 -0.00046668 4.42207e-05 -0.000465466 1.74384e-05 0.00247875 0.000525762 -0.00460307 0.0222178 -0.00260618 0.0106398 0.0127435 0.0295541 0.00407602 -0.00628589 0.0187956 0.00565556 0.0158137 0.019222
internal_weight=481.071 412.407 407.52 400.915 392.248 255.92 232.879 136.327 23.0412 128.006 68.6641 63.4584 21.588 41.8704 24.5725 17.2979 19.3923 13.4389 10.768
internal_count=1976 1684 1664 1636 1600 1046 952 554 94 519 292 269 95 174 103 71 82 58 47
is_linear=0
shrinkage=0.05


Tree=26
num_leaves=31
num_cat=0
split_feature=1 0 2 5 0 5 5 1 4 4 4 1 2 5 1 5 1 1 1 1 5 4 4 5 5 0 1 1 1 1
split_gain=2.63479 3.27445 2.18737 4.29519 4.25434 3.25946 4.7616 3.66917 3.4927 4.35415 2.56471 3.92474 2.43283 1.86006 1.73158 1.6651 1.42545 3.81286 2.03951 1.34219 2.86994 3.72864 1.82685 1.79585 4.48006 2.23159 1.3189 1.04903 0.895062 0.853826
threshold=0.13878107815980914 3.5000000000000004 -0.077380955219268785 -0.65000000596046437 -2.4999999999999996 -0.94999998807907093 -0.52777779102325428 0.034833164885640151 1.0285714268684389 0.24444445222616198 0.77500000596046459 -0.046171549707651131 0.060119049623608596 -0.81666666269302357 -0.0079238316975533945 0.72222220897674572 -0.10585437715053557 -0.083153735846281038 -0.29788732528686518 0.35486111044883734 3.4500000476837163 -2.1714285612106319 -1.0142857432365415 1.6428571343421938 1.0249999761581423 -1.4999999999999998 -0.084314864128828035 -0.026756632141768929 0.074988026171922698 0.19912095367908481
decision_type=2 2 2 2 2 2 2 2 2 2 2 2 2 2 2 2 2 2 2 2 2 2 2 2 2 2 2 2 2 2
left_child=1 2 3 13 -5 7 27 12 9 -8 11 -6 -4 16 26 -10 18 -18 -1 20 21 -2 29 24 -24 -25 -3 -7 -16 -23
right_child=19 14 5 4 10 6 8 -9 15 -11 -12 -13 -14 -15 28 -17 17 -19 -20 -21 -22 22 23 25 -26 -27 -28 -29 -30 -31
leaf_value=0.014173490688915861 -0.028468169555899637 -0.02124624535200554 -0.049843732841090303 -0.025197108100924365 -0.0032238633187342222 0.01694468606418353 -0.0043167969846952658 0.014652458391459219 -0.043984161288673489 0.019548065395213157 0.048614853884726084 0.031618892082553612 -0.0065659916350314998 -0.020971397367345664 -0.047020949771503812 -0.008557617383369031 0.034060178582101482 0.0018006086652885981 -0.0087151638998853951 -0.014200062385444174 0.039084074472127972 0.015711949370282054 0.012745069826720674 -0.0038892754909709937 -0.034500579158471746 0.039965850641162128 0.010023360885778501 0.048823089339727739 -0.019108644571070078 0.04358791286084112
leaf_weight=12.242592021822928 6.2274344414472571 6.8317761868238449 9.5758364945650118 5.1268585026264182 13.9280818849802 5.4632099568843842 129.58205358684063 4.9611137956380835 7.1235264986753446 22.419669687747955 7.9489002376794806 19.255766779184341 4.9135574996471396 9.6290656477212888 5.4082985222339612 6.2068270444869995 10.638541236519812 65.885597482323647 47.468924999237061 5.2252221107482901 8.5613506883382779 5.1729538291692716 18.169252485036854 4.7214379459619522 6.931993916630744 7.5223957598209363 6.6590164750814456 4.8911627829074842 6.1246540695428848 5.8572662621736526
leaf_count=52 26 28 39 21 56 22 527 20 29 92 33 79 20 39 22 25 43 269 196 23 38 22 75 21 29 33 27 20 25 25
internal_value=0.0010645 -0.000443192 0.000689507 0.00447662 0.0177519 -0.00303913 -0.000888983 -0.0224604 -0.00294895 -0.000796822 0.0231052 0.0169945 -0.0351676 0.000266484 -0.0179726 -0.027489 0.00176757 0.0062854 -0.00402233 0.0101536 0.0121683 0.00794807 0.012636 0.00735536 -0.000302352 0.0230545 -0.00581166 0.0320033 -0.0321979 0.0305146
internal_weight=480.674 412.285 387.261 192.124 46.2596 195.137 175.686 19.4505 165.332 152.002 41.1327 33.1838 14.4894 145.865 25.0237 13.3304 136.236 76.5241 59.7115 68.3893 63.1641 54.6027 48.3753 37.3451 25.1012 12.2438 13.4908 10.3544 11.533 11.0302
internal_count=1976 1684 1582 788 189 794 715 79 673 619 168 135 59 599 102 54 560 312 248 292 269 231 205 158 104 54 55 42 47 47
is_linear=0
shrinkage=0.05


Tree=27
num_leaves=22
num_cat=0
split_feature=1 1 0 1 3 1 5 1 5 3 3 1 3 0 5 5 5 3 1 3 5
split_gain=2.38706 3.23535 2.45357 2.87713 1.45397 1.78696 4.02408 2.37342 1.44856 1.8102 1.73304 1.21457 3.2283 2.70507 2.22945 4.51925 2.06473 1.55245 1.20118 1.76519 0.667016
threshold=0.13878107815980914 0.13018435239791873 3.5000000000000004 0.11968353390693666 3.1055555343627934 0.10341599956154825 1.3499999642372134 0.0042284999508410701 -1.1500000357627866 0.50694444775581371 1.3874999880790713 0.35486111044883734 1.3874999880790713 -1.4999999999999998 0.97619047760963451 1.3499999642372134 0.27500000596046453 0.61428573727607738 0.22188117355108264 2.2500000000000004 3.0499999523162846
decision_type=2 2 2 2 2 2 2 2 2 2 2 2 2 2 2 2 2 2 2 2 2
left_child=1 2 3 4 5 7 -7 -1 -4 -10 -11 12 14 -14 16 -16 -2 -17 19 -15 -19
right_child=11 -3 8 -5 -6 6 -8 -9 9 10 -12 -13 13 18 15 17 -18 20 -20 -21 -22
leaf_value=-0.001397702073212852 0.00087313693845149994 -0.040776127449389549 -0.036013795440100492 0.036654407797388981 -0.023061207739429393 0.0089358401194100691 -0.045498133451204424 0.0071403895444019571 -0.026456589307691354 0.026049460548502774 -0.01541761904394584 -0.013442392346867719 -0.00023987174434674386 0.051871049373606565 -0.047560994617988267 -0.010785100529472035 0.035555353062860742 0.0067947937386202669 0.058690537151101924 0.0095371307905046318 0.032036062187412277
leaf_weight=232.11331437528133 9.0546008199453372 4.9074878692626944 6.3053653538227108 5.5874338597059241 6.4305523037910453 7.1651721298694593 6.4529042989015579 125.35027827322483 7.6471103727817562 5.1600980013608915 4.9240862876176834 5.2432722598314276 6.2279716581106213 4.5231408625841123 5.1959394365549114 8.6314729154109973 8.157382056117056 6.0341944694519025 5.0941110849380484 5.4046462625265121 4.6221275925636292
leaf_count=946 37 20 26 24 26 30 27 513 31 21 20 23 28 21 21 35 34 26 23 23 21
internal_value=0.00101311 -0.000420928 6.55003e-05 0.00103776 0.000510606 0.000919087 -0.0168576 0.00159632 -0.0154305 -0.00811088 0.00580117 0.00967856 0.0116045 0.0274659 0.00352087 -0.00617306 0.0173103 0.00497644 0.0389525 0.0288246 0.0177431
internal_weight=480.233 412.044 407.136 383.1 377.512 371.082 13.6181 357.464 24.0367 17.7313 10.0842 68.1889 62.9456 21.2499 41.6957 24.4837 17.212 19.2878 15.0219 9.92779 10.6563
internal_count=1976 1684 1664 1566 1542 1516 57 1459 98 72 41 292 269 95 174 103 71 82 67 44 47
is_linear=0
shrinkage=0.05


Tree=28
num_leaves=21
num_cat=0
split_feature=1 1 0 1 5 4 5 4 3 1 3 0 5 5 5 3 1 3 1 5
split_gain=2.16563 2.90874 2.21823 2.62225 1.33671 1.611 3.89994 3.61144 1.32267 1.10034 2.95343 2.4959 2.01858 4.07228 1.88375 1.40755 1.12528 1.65086 1.00955 0.614471
threshold=0.13878107815980914 0.13018435239791873 3.5000000000000004 0.11968353390693666 3.5499999523162846 -0.96428570151329029 1.4499999880790713 -0.74999999999999989 -1.0976190567016599 0.35486111044883734 1.3874999880790713 -1.4999999999999998 0.97619047760963451 1.3499999642372134 0.27500000596046453 0.61428573727607738 0.22188117355108264 2.2500000000000004 -0.0079238316975533945 3.0499999523162846
decision_type=2 2 2 2 2 2 2 2 2 2 2 2 2 2 2 2 2 2 2 2
left_child=1 2 3 4 5 6 -1 -7 -4 10 12 -12 14 -14 -2 -15 17 -13 -10 -17
right_child=9 -3 8 -5 -6 7 -8 -9 18 -11 11 16 13 15 -16 19 -18 -19 -20 -21
leaf_value=0.01797866182553948 0.00082957257754214431 -0.038593795170143254 -0.034407914543872715 0.035144225502152689 -0.019458559017417831 -0.026807712234190675 -0.0040207798159634135 0.00038740367188631766 0.0042114833918911109 -0.012728612798874451 -0.00022786289747202785 0.05025173950786728 -0.045114502797254846 -0.010237451228324363 0.0340183135388731 0.0064658834959379664 0.056790047207760631 0.0090789570980099113 -0.019658281006511971 0.030776082501703203
leaf_weight=41.03617188334465 9.0536078810691851 4.9252519607543936 6.276846036314967 5.5374454259872428 8.2185583859682065 12.773106992244719 39.57179094851017 275.85163557529449 8.8783471137285286 5.2599905878305426 6.2283753305673626 4.4376412481069547 5.2035952210426357 8.6383664906024951 8.1011078953742963 6.0243468135595304 5.0036691427230826 5.3938082754611969 8.8404830992221779 4.5720861554145813
leaf_count=167 37 20 26 24 34 52 161 1128 36 23 28 21 21 35 34 26 23 23 36 21
internal_value=0.000964247 -0.000399731 6.2487e-05 0.000986458 0.000485342 0.000929263 0.00717877 -0.000816118 -0.0146848 0.00923668 0.0110807 0.0263351 0.00335555 -0.00587309 0.0165026 0.0047429 0.0374873 0.0276632 -0.00769789 0.0169551
internal_weight=479.826 411.91 406.984 382.989 377.451 369.233 80.608 288.625 23.9957 67.9166 62.6566 21.0635 41.5931 24.4384 17.1547 19.2348 14.8351 9.83145 17.7188 10.5964
internal_count=1976 1684 1664 1566 1542 1508 328 1180 98 292 269 95 174 103 71 82 67 44 72 47
is_linear=0
shrinkage=0.05


Tree=29
num_leaves=31
num_cat=0
split_feature=1 3 3 3 1 2 4 1 0 3 2 3 1 1 0 2 1 3 4 3 0 1 4 2 1 1 4 3 4 4
split_gain=1.99006 3.72743 3.03295 4.32576 5.11058 2.53833 2.85128 4.09362 2.75581 2.43518 2.32494 3.55503 2.09864 5.02148 3.34401 2.67439 2.07159 3.89179 2.016 4.93503 3.20421 3.17844 1.98624 1.91951 3.23537 2.83776 2.31533 2.19366 1.87055 7.93767
threshold=0.0042284999508410701 -2.5499999523162837 -1.0976190567016599 -0.55000001192092884 0.10133131593465806 -0.077380955219268785 -0.81666666269302357 -0.14019770920276639 1.5000000000000002 -1.3666666746139524 -0.11805555596947669 0.72499999403953563 -0.073818754404783235 -0.059652497991919511 1.0000000180025095e-35 0.060119049623608596 0.040137190371751792 -1.8874999880790708 0.82857143878936779 -0.17500000447034833 1.0000000180025095e-35 -0.10447052866220473 -0.96428570151329029 -0.24444445222616193 -0.05275974050164222 -0.076940286904573427 0.24444445222616198 -0.94999998807907093 1.0285714268684389 0.24444445222616198
decision_type=2 2 2 2 2 2 2 2 2 2 2 2 2 2 2 2 2 2 2 2 2 2 2 2 2 2 2 2 2 2
left_child=5 -2 9 4 -4 10 8 -8 -7 16 22 18 15 -14 -15 -9 -3 -18 19 20 -12 -20 -1 26 25 -25 -24 -28 29 -5
right_child=1 2 3 28 -6 6 7 12 -10 -11 11 -13 13 14 -16 -17 17 -19 21 -21 -22 -23 23 24 -26 -27 27 -29 -30 -31
leaf_value=0.026193829240708025 -0.040168883552492311 -0.0071990788668083302 -0.036759881871353685 0.00222583664362628 0.017765719925704113 0.012268829508876707 0.020278654770512987 -0.061370997899038653 -0.017619422901507944 0.046173355557244083 -0.013172811599404276 0.047013538239643313 0.030398096573172863 -0.03417513948146781 -0.002377012223795486 -0.016055493755071978 0.053669114096314988 -0.0035103209572113526 -0.0062086843395439371 -0.0472018700010517 0.026999721323773741 0.044126253833492807 0.022689529357802756 -0.014231032782224524 0.0099676584775268556 -0.056052457211862278 -0.010319312004505586 0.010233182466535897 -0.0067674609404765711 0.031828124843945475
leaf_weight=5.8880322128534308 4.6218462735414496 8.2779462784528786 13.34662337601185 123.83236598968506 6.3382739424705496 24.026782184839249 7.1534520238637915 6.1573850959539396 11.35829636454582 7.0346583276987067 9.1542226076126116 6.0836210250854483 5.4235266149044028 20.530831500887871 13.84275086224079 6.9094820320606232 6.0125686377286938 5.8920086771249727 5.5945883244276047 4.9390229582786587 10.843056872487066 7.1375374495983106 10.809042394161223 22.424793988466263 11.336900055408476 4.9518741667270687 34.607797518372536 20.778097286820412 26.465528145432472 27.713577076792717
leaf_count=24 19 34 54 520 26 97 29 25 46 29 37 25 22 83 56 28 25 24 23 20 44 29 45 92 46 20 143 85 109 117
internal_value=0.000917496 0.00427887 0.00519225 0.0030379 -0.0192034 -0.00216933 -0.00858245 -0.0152196 0.00267497 0.0208408 0.00178948 0.0115485 -0.0200232 -0.0143147 -0.0213696 -0.0374091 0.012011 0.0253689 0.00582077 -0.00244457 0.0086098 0.0220087 -0.00206424 -0.00365024 -0.0124941 -0.0217957 0.00152201 -0.00260901 0.00549738 0.00763928
internal_weight=479.486 229.535 224.914 197.696 19.6849 249.951 95.4025 60.0174 35.3851 27.2172 154.549 43.752 52.864 39.7971 34.3736 13.0669 20.1825 11.9046 37.6684 24.9363 19.9973 12.7321 110.797 104.909 38.7136 27.3767 66.1949 55.3859 178.011 151.546
